{"learner":{"attributes":{"scikit_learn":"{\"_estimator_type\": \"classifier\"}"},"feature_names":["num_kurtosis","num_skewness","num_mad","num_std","num_missing","num_missing_frac","num_most_frequent_count","num_most_frequent_frac","num_least_frequent_count","num_least_frequent_frac","num_entropy","header_num_chars","header_num_underscore","header_num_words","bool_missing","bool_least_frequent_frac","bool_bool_mean","bool_most_frequent_count","bool_entropy","bool_missing_frac","bool_most_frequent_frac","bool_least_frequent_count","obj_least_frequent_frac","obj_least_frequent_count","obj_missing_frac","obj_entropy","obj_missing","obj_most_frequent_frac","obj_most_frequent_count","obj_min_length","obj_max_length","obj_n_unique","obj_median_length","obj_mean_length","dt_time_span_days","dt_most_frequent_count","dt_timedelta_mean","dt_missing_frac","dt_most_frequent_frac","dt_is_monotonic","dt_missing","dt_time_span_secs","dt_time_span_years","dt_least_frequent_frac","dt_entropy","dt_least_frequent_count"],"feature_types":["float","float","float","float","float","float","float","float","float","float","float","float","float","float","float","float","float","float","float","float","float","float","float","float","float","float","float","float","float","float","float","float","float","float","float","float","float","float","float","float","float","float","float","float","float","float"],"gradient_booster":{"model":{"gbtree_model_param":{"num_parallel_tree":"1","num_trees":"100"},"iteration_indptr":[0,1,2,3,4,5,6,7,8,9,10,11,12,13,14,15,16,17,18,19,20,21,22,23,24,25,26,27,28,29,30,31,32,33,34,35,36,37,38,39,40,41,42,43,44,45,46,47,48,49,50,51,52,53,54,55,56,57,58,59,60,61,62,63,64,65,66,67,68,69,70,71,72,73,74,75,76,77,78,79,80,81,82,83,84,85,86,87,88,89,90,91,92,93,94,95,96,97,98,99,100],"tree_info":[0,0,0,0,0,0,0,0,0,0,0,0,0,0,0,0,0,0,0,0,0,0,0,0,0,0,0,0,0,0,0,0,0,0,0,0,0,0,0,0,0,0,0,0,0,0,0,0,0,0,0,0,0,0,0,0,0,0,0,0,0,0,0,0,0,0,0,0,0,0,0,0,0,0,0,0,0,0,0,0,0,0,0,0,0,0,0,0,0,0,0,0,0,0,0,0,0,0,0,0],"trees":[{"base_weights":[-9.529575E-1,7.5391903E0,-1.1431285E0,2.0760565E0,-3.0614913E-1,-3.0727026E-1,2.0691485E0],"categories":[],"categories_nodes":[],"categories_segments":[],"categories_sizes":[],"default_left":[1,1,0,0,0,0,0],"id":0,"left_children":[1,3,5,-1,-1,-1,-1],"loss_changes":[3.3949866E2,8.685944E0,8.876801E0,0E0,0E0,0E0,0E0],"parents":[2147483647,0,0,1,1,2,2],"right_children":[2,4,6,-1,-1,-1,-1],"split_conditions":[-2.0000165E0,5.0232065E-1,4.7008E5,2.0760565E0,-3.0614913E-1,-3.0727026E-1,2.0691485E0],"split_indices":[0,7,8,0,0,0,0],"split_type":[0,0,0,0,0,0,0],"sum_hessian":[2.1021875E2,4.60415E0,2.0561461E2,4.4918537E0,1.1229634E-1,2.055023E2,1.1229634E-1],"tree_param":{"num_deleted":"0","num_feature":"46","num_nodes":"7","size_leaf_vector":"1"}},{"base_weights":[-9.227899E-1,-1.071872E0,1.5145621E0,-2.9679084E-1,4.9439794E-1,1.8365848E0,-2.9667643E-1,2.720901E0,1.6621695E0,4.944725E-1,-2.965613E-1],"categories":[],"categories_nodes":[],"categories_segments":[],"categories_sizes":[],"default_left":[0,0,1,0,0,0,0,0,1,0,0],"id":1,"left_children":[1,3,5,-1,-1,7,-1,-1,9,-1,-1],"loss_changes":[6.1251984E1,1.7142166E1,8.207773E0,0E0,0E0,1.2564899E1,0E0,0E0,4.3504524E0,0E0,0E0],"parents":[2147483647,0,0,1,1,2,2,5,5,8,8],"right_children":[2,4,6,-1,-1,8,-1,-1,10,-1,-1],"split_conditions":[2.879E4,5E-1,5.0698894E-1,-2.9679084E-1,4.9439794E-1,5.00001E-1,-2.9667643E-1,2.720901E0,-2.0000165E0,4.944725E-1,-2.965613E-1],"split_indices":[8,9,7,0,0,3,0,0,0,0,0],"split_type":[0,0,0,0,0,0,0,0,0,0,0],"sum_hessian":[1.6856636E2,1.588504E2,9.715959E0,1.5686404E2,1.9863712E0,8.653674E0,1.0622841E0,1.7704736E-1,8.476626E0,7.9454846E0,5.3114206E-1],"tree_param":{"num_deleted":"0","num_feature":"46","num_nodes":"11","size_leaf_vector":"1"}},{"base_weights":[-9.0639526E-1,1.3867221E0,-2.8930938E-1,1.4416579E0,-2.8874564E-1,4.0598923E-1,6.3629514E-1,4.1497055E-1,-2.888842E-1],"categories":[],"categories_nodes":[],"categories_segments":[],"categories_sizes":[],"default_left":[1,1,0,1,0,0,0,0,0],"id":2,"left_children":[1,3,-1,5,-1,-1,7,-1,-1],"loss_changes":[5.399073E1,1.2929516E0,0E0,5.645218E-1,0E0,0E0,1.2511051E0,0E0,0E0],"parents":[2147483647,0,0,1,1,3,3,6,6],"right_children":[2,4,-1,6,-1,-1,8,-1,-1],"split_conditions":[-1.9965786E0,5.0232065E-1,-2.8930938E-1,-2.0000165E0,-2.8874564E-1,4.0598923E-1,5.00001E-1,4.1497055E-1,-2.888842E-1],"split_indices":[0,7,0,0,0,0,3,0,0],"split_type":[0,0,0,0,0,0,0,0,0],"sum_hessian":[1.3493007E2,9.541163E0,1.253889E2,9.333372E0,2.0779148E-1,8.536363E0,7.970089E-1,5.200055E-1,2.7700338E-1],"tree_param":{"num_deleted":"0","num_feature":"46","num_nodes":"9","size_leaf_vector":"1"}},{"base_weights":[-8.936053E-1,1.2439137E0,-2.8386986E-1,-2.8280407E-1,1.2769616E0,3.5982212E-1,5.7404673E-1,3.617401E-2,3.5990065E-1],"categories":[],"categories_nodes":[],"categories_segments":[],"categories_sizes":[],"default_left":[1,0,0,0,1,0,0,0,0],"id":3,"left_children":[1,3,-1,-1,5,-1,7,-1,-1],"loss_changes":[3.7563988E1,5.8029366E-1,0E0,0E0,3.5565662E-1,0E0,2.2249924E-1,0E0,0E0],"parents":[2147483647,0,0,1,1,4,4,6,6],"right_children":[2,4,-1,-1,6,-1,8,-1,-1],"split_conditions":[-1.9965786E0,5E-1,-2.8386986E-1,-2.8280407E-1,1.208E5,3.5982212E-1,-2.0000072E0,3.617401E-2,3.5990065E-1],"split_indices":[0,2,0,0,6,0,0,0,0],"split_type":[0,0,0,0,0,0,0,0,0],"sum_hessian":[1.0525448E2,7.625537E0,9.762894E1,1.0781145E-1,7.517725E0,6.8598585E0,6.578665E-1,4.1945264E-1,2.3841384E-1],"tree_param":{"num_deleted":"0","num_feature":"46","num_nodes":"9","size_leaf_vector":"1"}},{"base_weights":[-8.785201E-1,1.2238244E0,-1.0397575E0,-2.7714908E-1,3.319618E-1,-2.7987656E-1,6.1906464E-2,-2.793108E-1,1.244139E0,3.4141517E-1,2.7002087E-1],"categories":[],"categories_nodes":[],"categories_segments":[],"categories_sizes":[],"default_left":[1,0,0,0,0,0,0,0,0,0,0],"id":4,"left_children":[1,3,5,-1,-1,-1,7,-1,9,-1,-1],"loss_changes":[2.7706997E1,2.164545E-1,4.9256134E-1,0E0,0E0,0E0,5.284366E-1,0E0,8.7338686E-4,0E0,0E0],"parents":[2147483647,0,0,1,1,2,2,6,6,8,8],"right_children":[2,4,6,-1,-1,-1,8,-1,10,-1,-1],"split_conditions":[-2.0000165E0,-9.253249E-3,2.1184E5,-2.7714908E-1,3.319618E-1,-2.7987656E-1,1.9824319E-4,-2.793108E-1,4.2368E5,3.4141517E-1,2.7002087E-1],"split_indices":[0,1,8,0,0,0,2,0,8,0,0],"split_type":[0,0,0,0,0,0,0,0,0,0,0],"sum_hessian":[8.173541E1,5.82191E0,7.5913506E1,4.181521E-2,5.7800946E0,7.550992E1,4.0358508E-1,2.0857364E-1,1.9501145E-1,1.7042203E-1,2.458942E-2],"tree_param":{"num_deleted":"0","num_feature":"46","num_nodes":"11","size_leaf_vector":"1"}},{"base_weights":[-8.6559E-1,1.0767725E0,-2.7688286E-1,-2.757317E-1,1.1179209E0,3.1378555E-1,5.7791305E-1,3.2796448E-1,-2.794811E-1],"categories":[],"categories_nodes":[],"categories_segments":[],"categories_sizes":[],"default_left":[1,0,0,0,1,0,0,0,0],"id":5,"left_children":[1,3,-1,-1,5,-1,7,-1,-1],"loss_changes":[2.0786205E1,4.3989992E-1,0E0,0E0,1.4577293E-1,0E0,4.792913E-1,0E0,0E0],"parents":[2147483647,0,0,1,1,4,4,6,6],"right_children":[2,4,-1,-1,6,-1,8,-1,-1],"split_conditions":[-1.9965786E0,5E-1,-2.7688286E-1,-2.757317E-1,-2.0000165E0,3.1378555E-1,5.00001E-1,3.2796448E-1,-2.794811E-1],"split_indices":[0,2,0,0,0,0,3,0,0],"split_type":[0,0,0,0,0,0,0,0,0],"sum_hessian":[6.3368977E1,5.0685244E0,5.8300453E1,9.690042E-2,4.971624E0,4.5160604E0,4.5556363E-1,3.2569113E-1,1.298725E-1],"tree_param":{"num_deleted":"0","num_feature":"46","num_nodes":"9","size_leaf_vector":"1"}},{"base_weights":[-8.4870136E-1,1.0222019E0,-2.7465093E-1,-2.731649E-1,1.0589093E0,3.0135044E-1,4.174276E-1,3.1123164E-1,-2.7641654E-1],"categories":[],"categories_nodes":[],"categories_segments":[],"categories_sizes":[],"default_left":[1,0,0,0,1,0,0,0,0],"id":6,"left_children":[1,3,-1,-1,5,-1,7,-1,-1],"loss_changes":[1.6271473E1,3.1880045E-1,0E0,0E0,1.789527E-1,0E0,4.2735118E-1,0E0,0E0],"parents":[2147483647,0,0,1,1,4,4,6,6],"right_children":[2,4,-1,-1,6,-1,8,-1,-1],"split_conditions":[-1.9965786E0,5E-1,-2.7465093E-1,-2.731649E-1,-2.0000165E0,3.0135044E-1,5.00001E-1,3.1123164E-1,-2.7641654E-1],"split_indices":[0,2,0,0,0,0,3,0,0],"split_type":[0,0,0,0,0,0,0,0,0],"sum_hessian":[4.9017952E1,4.2456565E0,4.4772297E1,7.474805E-2,4.1709085E0,3.7763443E0,3.9456415E-1,2.606779E-1,1.3388626E-1],"tree_param":{"num_deleted":"0","num_feature":"46","num_nodes":"9","size_leaf_vector":"1"}},{"base_weights":[-8.4215015E-1,-2.7297035E-1,9.853151E-1,-2.7179503E-1,1.0442848E0,5.3363097E-1,2.9256812E-1,2.457815E-2,3.0224988E-1],"categories":[],"categories_nodes":[],"categories_segments":[],"categories_sizes":[],"default_left":[0,0,0,0,0,0,0,0,0],"id":7,"left_children":[1,-1,3,-1,5,7,-1,-1,-1],"loss_changes":[1.2251148E1,0E0,3.9487433E-1,0E0,8.0620766E-2,7.464819E-2,0E0,0E0,0E0],"parents":[2147483647,0,0,2,2,4,4,5,5],"right_children":[2,-1,4,-1,6,8,-1,-1,-1],"split_conditions":[5E-1,-2.7297035E-1,1.9824319E-4,-2.7179503E-1,5.0000226E-1,4E0,2.9256812E-1,2.457815E-2,3.0224988E-1],"split_indices":[9,0,2,0,3,11,0,0,0],"split_type":[0,0,0,0,0,0,0,0,0],"sum_hessian":[3.772565E1,3.4382633E1,3.3430166E0,9.55158E-2,3.247501E0,2.83619E-1,2.963882E0,1.6311984E-1,1.2049917E-1],"tree_param":{"num_deleted":"0","num_feature":"46","num_nodes":"9","size_leaf_vector":"1"}},{"base_weights":[-8.2825553E-1,9.710478E-1,-2.716998E-1,-2.691968E-1,1.0036068E0,4.0090367E-1,2.862315E-1,-2.7476498E-1,2.938287E-1],"categories":[],"categories_nodes":[],"categories_segments":[],"categories_sizes":[],"default_left":[1,0,0,0,0,0,0,0,0],"id":8,"left_children":[1,3,-1,-1,5,7,-1,-1,-1],"loss_changes":[9.802597E0,1.7693377E-1,0E0,0E0,1.0678506E-1,2.6527262E-1,0E0,0E0,0E0],"parents":[2147483647,0,0,1,1,4,4,5,5],"right_children":[2,4,-1,-1,6,8,-1,-1,-1],"split_conditions":[-1.9965786E0,5E-1,-2.716998E-1,-2.691968E-1,5.0000226E-1,2.08602E5,2.862315E-1,-2.7476498E-1,2.938287E-1],"split_indices":[0,2,0,0,3,8,0,0,0],"split_type":[0,0,0,0,0,0,0,0,0],"sum_hessian":[2.9156872E1,2.7426908E0,2.641418E1,4.4239804E-2,2.6984508E0,2.6586035E-1,2.4325905E0,8.7137714E-2,1.7872265E-1],"tree_param":{"num_deleted":"0","num_feature":"46","num_nodes":"9","size_leaf_vector":"1"}},{"base_weights":[-8.299617E-1,9.6356666E-1,-2.7073613E-1,1.0393453E0,3.1935465E-1,-2.6120073E-1,2.8158176E-1,-2.7213907E-1,2.8685698E-1],"categories":[],"categories_nodes":[],"categories_segments":[],"categories_sizes":[],"default_left":[1,1,0,0,0,0,0,0,0],"id":9,"left_children":[1,3,-1,5,7,-1,-1,-1,-1],"loss_changes":[7.3338223E0,1.00896955E-1,0E0,4.769373E-2,2.2006837E-1,0E0,0E0,0E0,0E0],"parents":[2147483647,0,0,1,1,3,3,4,4],"right_children":[2,4,-1,6,8,-1,-1,-1,-1],"split_conditions":[-1.9965786E0,-2.0000165E0,-2.7073613E-1,-9.253249E-3,2.1184E5,-2.6120073E-1,2.8158176E-1,-2.7213907E-1,2.8685698E-1],"split_indices":[0,0,0,1,8,0,0,0,0],"split_type":[0,0,0,0,0,0,0,0,0],"sum_hessian":[2.2523298E1,2.0700285E0,2.045327E1,1.8519005E0,2.1812801E-1,1.1373947E-2,1.8405266E0,7.851545E-2,1.3961257E-1],"tree_param":{"num_deleted":"0","num_feature":"46","num_nodes":"9","size_leaf_vector":"1"}},{"base_weights":[-8.4038043E-1,-2.700032E-1,9.199511E-1,2.7812245E-1,1.3832971E-1,5.5539346E-1,-2.7035984E-1,-2.6680574E-1,2.8165117E-1],"categories":[],"categories_nodes":[],"categories_segments":[],"categories_sizes":[],"default_left":[0,0,1,0,0,0,0,0,0],"id":10,"left_children":[1,-1,3,-1,5,7,-1,-1,-1],"loss_changes":[4.9994555E0,0E0,1.3703656E-1,0E0,9.371701E-2,1.1108084E-1,0E0,0E0,0E0],"parents":[2147483647,0,0,2,2,4,4,5,5],"right_children":[2,-1,4,-1,6,8,-1,-1,-1],"split_conditions":[5E-1,-2.700032E-1,1.208E5,2.7812245E-1,5.00001E-1,1.9824319E-4,-2.7035984E-1,-2.6680574E-1,2.8165117E-1],"split_indices":[9,0,6,0,3,2,0,0,0],"split_type":[0,0,0,0,0,0,0,0,0],"sum_hessian":[1.6865599E1,1.5393384E1,1.4722159E0,1.2773407E0,1.9487526E-1,1.4312513E-1,5.1750116E-2,3.4596067E-2,1.0852907E-1],"tree_param":{"num_deleted":"0","num_feature":"46","num_nodes":"9","size_leaf_vector":"1"}},{"base_weights":[-8.313526E-1,1.0170276E0,-9.9948925E-1,-2.537775E-1,2.7554616E-1,-2.6945257E-1,1.4390992E-1,-2.6613218E-1,2.757037E-1],"categories":[],"categories_nodes":[],"categories_segments":[],"categories_sizes":[],"default_left":[1,0,0,0,0,0,0,0,0],"id":11,"left_children":[1,3,5,-1,-1,-1,7,-1,-1],"loss_changes":[4.1184254E0,2.738738E-2,1.0024738E-1,0E0,0E0,0E0,7.748242E-2,0E0,0E0],"parents":[2147483647,0,0,1,1,2,2,6,6],"right_children":[2,4,6,-1,-1,-1,8,-1,-1],"split_conditions":[-2.0000165E0,-9.253249E-3,2.08602E5,-2.537775E-1,2.7554616E-1,-2.6945257E-1,1.9824319E-4,-2.6613218E-1,2.757037E-1],"split_indices":[0,1,8,0,0,0,2,0,0],"split_type":[0,0,0,0,0,0,0,0,0],"sum_hessian":[1.32502575E1,1.1046253E0,1.2145632E1,6.750573E-3,1.0978748E0,1.2069578E1,7.605355E-2,3.325378E-2,4.279977E-2],"tree_param":{"num_deleted":"0","num_feature":"46","num_nodes":"9","size_leaf_vector":"1"}},{"base_weights":[-8.367558E-1,8.9019144E-1,-2.6901793E-1,1.008568E0,8.983419E-2,-2.49219E-1,2.7358E-1,-2.681531E-1,2.7479395E-1],"categories":[],"categories_nodes":[],"categories_segments":[],"categories_sizes":[],"default_left":[1,1,0,0,0,0,0,0,0],"id":12,"left_children":[1,3,-1,5,7,-1,-1,-1,-1],"loss_changes":[2.9525223E0,8.539915E-2,0E0,2.1024644E-2,1.1973866E-1,0E0,0E0,0E0,0E0],"parents":[2147483647,0,0,1,1,3,3,4,4],"right_children":[2,4,-1,6,8,-1,-1,-1,-1],"split_conditions":[-1.9965786E0,-2.0000165E0,-2.6901793E-1,-9.253249E-3,2.1184E5,-2.49219E-1,2.7358E-1,-2.681531E-1,2.7479395E-1],"split_indices":[0,0,0,1,8,0,0,0,0],"split_type":[0,0,0,0,0,0,0,0,0],"sum_hessian":[1.0155637E1,9.017737E-1,9.253863E0,7.8545696E-1,1.1631677E-1,5.2535236E-3,7.802034E-1,5.3688552E-2,6.2628224E-2],"tree_param":{"num_deleted":"0","num_feature":"46","num_nodes":"9","size_leaf_vector":"1"}},{"base_weights":[-8.181062E-1,8.964978E-1,-2.686907E-1,1.0042462E0,8.86448E-2,-2.4384147E-1,2.7210397E-1,-2.6693308E-1,2.7212426E-1],"categories":[],"categories_nodes":[],"categories_segments":[],"categories_sizes":[],"default_left":[1,1,0,0,0,0,0,0,0],"id":13,"left_children":[1,3,-1,5,7,-1,-1,-1,-1],"loss_changes":[2.477789E0,6.612593E-2,0E0,1.6239941E-2,9.104064E-2,0E0,0E0,0E0,0E0],"parents":[2147483647,0,0,1,1,3,3,4,4],"right_children":[2,4,-1,6,8,-1,-1,-1,-1],"split_conditions":[-1.9965786E0,-2.0000165E0,-2.686907E-1,-9.253249E-3,2.1184E5,-2.4384147E-1,2.7210397E-1,-2.6693308E-1,2.7212426E-1],"split_indices":[0,0,0,1,8,0,0,0,0],"split_type":[0,0,0,0,0,0,0,0,0],"sum_hessian":[7.778445E0,7.601379E-1,7.0183067E0,6.705636E-1,8.957437E-2,4.1042026E-3,6.664594E-1,4.1244887E-2,4.832948E-2],"tree_param":{"num_deleted":"0","num_feature":"46","num_nodes":"9","size_leaf_vector":"1"}},{"base_weights":[-8.194326E-1,8.8978595E-1,-2.6843882E-1,1.05975226E-1,9.9937105E-1,-2.557262E-1,2.5048628E-1,-2.3752089E-1,2.7094862E-1,-2.6459923E-1,2.69766E-1],"categories":[],"categories_nodes":[],"categories_segments":[],"categories_sizes":[],"default_left":[1,0,0,0,0,0,0,0,0,0,0],"id":14,"left_children":[1,3,-1,5,7,-1,9,-1,-1,-1,-1],"loss_changes":[1.8534071E0,4.913649E-2,0E0,1.0917217E-2,1.2597978E-2,0E0,5.912761E-2,0E0,0E0,0E0,0E0],"parents":[2147483647,0,0,1,1,3,3,4,4,6,6],"right_children":[2,4,-1,6,8,-1,10,-1,-1,-1,-1],"split_conditions":[-1.9965786E0,5.0000226E-1,-2.6843882E-1,4.999869E-1,-9.253249E-3,-2.557262E-1,2.08602E5,-2.3752089E-1,2.7094862E-1,-2.6459923E-1,2.69766E-1],"split_indices":[0,3,0,2,1,0,8,0,0,0,0],"split_type":[0,0,0,0,0,0,0,0,0,0,0],"sum_hessian":[5.9084454E0,5.7261306E-1,5.335832E0,7.036956E-2,5.0224346E-1,8.147423E-3,6.2222134E-2,3.2218448E-3,4.9902165E-1,2.3543011E-2,3.8679123E-2],"tree_param":{"num_deleted":"0","num_feature":"46","num_nodes":"11","size_leaf_vector":"1"}},{"base_weights":[-8.3278334E-1,-9.9729735E-1,4.7142145E-1,2.5932312E-1,-2.6824352E-1,8.7367666E-1,-2.672554E-1,9.9403137E-1,1.0315871E-1,-2.301752E-1,2.7001327E-1,1.7484184E-1,-2.6285848E-1],"categories":[],"categories_nodes":[],"categories_segments":[],"categories_sizes":[],"default_left":[0,0,1,0,0,1,0,0,0,0,0,0,0],"id":15,"left_children":[1,3,5,-1,-1,7,-1,9,11,-1,-1,-1,-1],"loss_changes":[9.7707796E-1,3.9218426E-2,3.020087E-1,0E0,0E0,3.7091106E-2,0E0,9.82216E-3,3.2833092E-2,0E0,0E0,0E0,0E0],"parents":[2147483647,0,0,1,1,2,2,5,5,7,7,8,8],"right_children":[2,4,6,-1,-1,8,-1,10,12,-1,-1,-1,-1],"split_conditions":[2.483E3,-2.0003781E0,-1.8516102E0,2.5932312E-1,-2.6824352E-1,-2.0000165E0,-2.672554E-1,-9.253249E-3,5.00001E-1,-2.301752E-1,2.7001327E-1,1.7484184E-1,-2.6285848E-1],"split_indices":[8,0,0,0,0,0,0,1,3,0,0,0,0],"split_type":[0,0,0,0,0,0,0,0,0,0,0,0,0],"sum_hessian":[4.5525684E0,4.0427303E0,5.0983787E-1,9.819316E-3,4.0329113E0,4.004341E-1,1.09403744E-1,3.4620062E-1,5.4233506E-2,2.5441602E-3,3.4365645E-1,3.611327E-2,1.8120239E-2],"tree_param":{"num_deleted":"0","num_feature":"46","num_nodes":"13","size_leaf_vector":"1"}},{"base_weights":[-8.1621325E-1,9.932388E-1,-9.932156E-1,-2.2178206E-1,2.6934344E-1,-5.3912595E-2,-1.0010422E0,2.6222762E-1,-2.60826E-1,-2.6809314E-1,-7.790235E-1,-2.5598025E-1,1.8180676E-1],"categories":[],"categories_nodes":[],"categories_segments":[],"categories_sizes":[],"default_left":[1,0,0,0,0,0,0,0,0,0,0,0,0],"id":16,"left_children":[1,3,5,-1,-1,7,9,-1,-1,-1,11,-1,-1],"loss_changes":[1.118485E0,7.725686E-3,2.3320675E-2,0E0,0E0,2.5786046E-2,4.5776367E-5,0E0,0E0,0E0,2.8668558E-3,0E0,0E0],"parents":[2147483647,0,0,1,1,2,2,5,5,6,6,10,10],"right_children":[2,4,6,-1,-1,8,10,-1,-1,-1,12,-1,-1],"split_conditions":[-2.0000165E0,5E-1,-2.0000072E0,-2.2178206E-1,2.6934344E-1,5.00001E-1,4.9743944E-1,2.6222762E-1,-2.60826E-1,-2.6809314E-1,1.9824319E-4,-2.5598025E-1,1.8180676E-1],"split_indices":[0,2,0,0,0,3,9,0,0,0,2,0,0],"split_type":[0,0,0,0,0,0,0,0,0,0,0,0,0],"sum_hessian":[3.4906878E0,3.1086236E-1,3.1798255E0,2.0231886E-3,3.0883917E-1,2.633933E-2,3.153486E0,1.2377734E-2,1.39615955E-2,3.1437736E0,9.712601E-3,8.798149E-3,9.1445114E-4],"tree_param":{"num_deleted":"0","num_feature":"46","num_nodes":"13","size_leaf_vector":"1"}},{"base_weights":[-8.132437E-1,-2.6797214E-1,9.14557E-1,-2.5253326E-1,9.654521E-1,2.6873887E-1,6.012472E-1,2.6478136E-1,-2.4754846E-1],"categories":[],"categories_nodes":[],"categories_segments":[],"categories_sizes":[],"default_left":[0,0,0,0,1,0,0,0,0],"id":17,"left_children":[1,-1,3,-1,5,-1,7,-1,-1],"loss_changes":[8.7168753E-1,0E0,2.5257587E-2,0E0,3.3185482E-3,0E0,1.55185E-2,0E0,0E0],"parents":[2147483647,0,0,2,2,4,4,6,6],"right_children":[2,-1,4,-1,6,-1,8,-1,-1],"split_conditions":[5E-1,-2.6797214E-1,4.0750642E-4,-2.5253326E-1,1.208E5,2.6873887E-1,5.00001E-1,2.6478136E-1,-2.4754846E-1],"split_indices":[9,0,3,0,6,0,3,0,0],"split_type":[0,0,0,0,0,0,0,0,0],"sum_hessian":[2.6831338E0,2.4200902E0,2.6304385E-1,6.816579E-3,2.5622725E-1,2.3099032E-1,2.523695E-2,2.024669E-2,4.9902587E-3],"tree_param":{"num_deleted":"0","num_feature":"46","num_nodes":"9","size_leaf_vector":"1"}},{"base_weights":[-8.2477325E-1,9.877688E-1,-9.920531E-1,-1.9924983E-1,2.682074E-1,-2.678753E-1,3.1171274E-1,2.5656945E-1,-2.438124E-1],"categories":[],"categories_nodes":[],"categories_segments":[],"categories_sizes":[],"default_left":[1,0,0,0,0,0,0,0,0],"id":18,"left_children":[1,3,5,-1,-1,-1,7,-1,-1],"loss_changes":[6.2483704E-1,4.6015084E-3,2.1669269E-2,0E0,0E0,0E0,1.048919E-2,0E0,0E0],"parents":[2147483647,0,0,1,1,2,2,6,6],"right_children":[2,4,6,-1,-1,-1,8,-1,-1],"split_conditions":[-2.0000165E0,-9.253249E-3,2.1184E5,-1.9924983E-1,2.682074E-1,-2.678753E-1,-1.9965786E0,2.5656945E-1,-2.438124E-1],"split_indices":[0,1,8,0,0,0,0,0,0],"split_type":[0,0,0,0,0,0,0,0,0],"sum_hessian":[2.0591877E0,1.7381E-1,1.8853775E0,1.2417122E-3,1.7256829E-1,1.872916E0,1.2461566E-2,8.222724E-3,4.238842E-3],"tree_param":{"num_deleted":"0","num_feature":"46","num_nodes":"9","size_leaf_vector":"1"}},{"base_weights":[-8.199873E-1,9.0127265E-1,-2.677899E-1,9.5924425E-1,-2.4475837E-1,2.6770902E-1,5.914668E-1,8.0544785E-2,2.5261045E-1],"categories":[],"categories_nodes":[],"categories_segments":[],"categories_sizes":[],"default_left":[1,1,0,1,0,0,0,0,0],"id":19,"left_children":[1,3,-1,5,-1,-1,7,-1,-1],"loss_changes":[4.8675287E-1,1.599472E-2,0E0,1.891762E-3,0E0,0E0,1.4317692E-3,0E0,0E0],"parents":[2147483647,0,0,1,1,3,3,6,6],"right_children":[2,4,-1,6,-1,-1,8,-1,-1],"split_conditions":[-1.9965786E0,5.0232065E-1,-2.677899E-1,-2.0000165E0,-2.4475837E-1,2.6770902E-1,-2.0000072E0,8.0544785E-2,2.5261045E-1],"split_indices":[0,7,0,0,0,0,0,0,0],"split_type":[0,0,0,0,0,0,0,0,0],"sum_hessian":[1.5651841E0,1.4839351E-1,1.4167906E0,1.4399515E-1,4.398357E-3,1.288945E-1,1.5100661E-2,8.717983E-3,6.3826777E-3],"tree_param":{"num_deleted":"0","num_feature":"46","num_nodes":"9","size_leaf_vector":"1"}},{"base_weights":[-8.098901E-1,8.322401E-1,-2.6771587E-1,9.834585E-1,3.0768843E-2,-1.7321068E-1,2.6728877E-1,-2.56976E-1,2.584534E-1],"categories":[],"categories_nodes":[],"categories_segments":[],"categories_sizes":[],"default_left":[1,1,0,0,0,0,0,0,0],"id":20,"left_children":[1,3,-1,5,7,-1,-1,-1,-1],"loss_changes":[3.7605518E-1,1.5107848E-2,0E0,2.857305E-3,1.9136919E-2,0E0,0E0,0E0,0E0],"parents":[2147483647,0,0,1,1,3,3,4,4],"right_children":[2,4,-1,6,8,-1,-1,-1,-1],"split_conditions":[-1.9965786E0,-2.0000165E0,-2.6771587E-1,-9.253249E-3,2.1184E5,-1.7321068E-1,2.6728877E-1,-2.56976E-1,2.584534E-1],"split_indices":[0,0,0,1,8,0,0,0,0],"split_type":[0,0,0,0,0,0,0,0,0],"sum_hessian":[1.201832E0,1.2467224E-1,1.0771598E0,1.047728E-1,1.9899439E-2,7.9721975E-4,1.0397558E-1,9.636547E-3,1.0262892E-2],"tree_param":{"num_deleted":"0","num_feature":"46","num_nodes":"9","size_leaf_vector":"1"}},{"base_weights":[-8.1048125E-1,-2.6764748E-1,8.3343846E-1,2.66801E-1,-7.142416E-3,4.988712E-1,-2.4876823E-1,2.5481957E-1,-2.2819237E-1],"categories":[],"categories_nodes":[],"categories_segments":[],"categories_sizes":[],"default_left":[0,0,1,0,0,0,0,0,0],"id":21,"left_children":[1,-1,3,-1,5,7,-1,-1,-1],"loss_changes":[2.8782386E-1,0E0,1.3162598E-2,0E0,7.6088062E-3,6.732705E-3,0E0,0E0,0E0],"parents":[2147483647,0,0,2,2,4,4,5,5],"right_children":[2,-1,4,-1,6,8,-1,-1,-1],"split_conditions":[5E-1,-2.6764748E-1,-2.0000165E0,2.66801E-1,5.00001E-1,-1.9965786E0,-2.4876823E-1,2.5481957E-1,-2.2819237E-1],"split_indices":[9,0,0,0,3,0,0,0,0],"split_type":[0,0,0,0,0,0,0,0,0],"sum_hessian":[9.2262644E-1,8.274288E-1,9.51976E-2,7.9684325E-2,1.5513281E-2,1.0104585E-2,5.408696E-3,7.6712472E-3,2.4333384E-3],"tree_param":{"num_deleted":"0","num_feature":"46","num_nodes":"9","size_leaf_vector":"1"}},{"base_weights":[-8.117775E-1,8.2158124E-1,-2.675754E-1,9.776396E-1,2.865116E-2,-1.4307478E-1,2.6620847E-1,2.3301694E-1,-2.4646495E-1,8.998831E-2,-2.437169E-1],"categories":[],"categories_nodes":[],"categories_segments":[],"categories_sizes":[],"default_left":[1,1,0,0,0,0,0,0,0,0,0],"id":22,"left_children":[1,3,-1,5,7,-1,-1,-1,9,-1,-1],"loss_changes":[2.15141E-1,8.912422E-3,0E0,1.7671399E-3,2.9613709E-3,0E0,0E0,0E0,3.8367533E-3,0E0,0E0],"parents":[2147483647,0,0,1,1,3,3,4,4,8,8],"right_children":[2,4,-1,6,8,-1,-1,-1,10,-1,-1],"split_conditions":[-1.9965786E0,-2.0000165E0,-2.675754E-1,-9.253249E-3,2E0,-1.4307478E-1,2.6620847E-1,2.3301694E-1,5.00001E-1,8.998831E-2,-2.437169E-1],"split_indices":[0,0,0,1,11,0,0,0,3,0,0],"split_type":[0,0,0,0,0,0,0,0,0,0,0],"sum_hessian":[6.9953775E-1,7.202326E-2,6.275145E-1,6.0067248E-2,1.1956011E-2,5.1329023E-4,5.9553955E-2,2.774485E-3,9.181526E-3,4.9614804E-3,4.2200456E-3],"tree_param":{"num_deleted":"0","num_feature":"46","num_nodes":"11","size_leaf_vector":"1"}},{"base_weights":[-8.1018806E-1,-2.6750013E-1,8.321344E-1,5.89617E-2,2.6555243E-1,2.2500877E-1,-1.9837582E-1,1.0138396E-1,-2.3767567E-1],"categories":[],"categories_nodes":[],"categories_segments":[],"categories_sizes":[],"default_left":[0,0,0,0,0,0,0,0,0],"id":23,"left_children":[1,-1,3,5,-1,-1,7,-1,-1],"loss_changes":[1.6715983E-1,0E0,6.824281E-3,2.0950134E-3,0E0,0E0,3.2443434E-3,0E0,0E0],"parents":[2147483647,0,0,2,2,3,3,6,6],"right_children":[2,-1,4,6,-1,-1,8,-1,-1],"split_conditions":[5E-1,-2.6750013E-1,5.0000226E-1,2E0,2.6555243E-1,2.2500877E-1,5.00001E-1,1.0138396E-1,-2.3767567E-1],"split_indices":[9,0,3,11,0,0,3,0,0],"split_type":[0,0,0,0,0,0,0,0,0],"sum_hessian":[5.364937E-1,4.8122093E-1,5.527275E-2,9.604584E-3,4.5668166E-2,2.2002708E-3,7.404314E-3,4.0954873E-3,3.3088266E-3],"tree_param":{"num_deleted":"0","num_feature":"46","num_nodes":"9","size_leaf_vector":"1"}},{"base_weights":[-8.198027E-1,-9.9402004E-1,4.1574547E-1,-2.6740456E-1,1.8135995E-1,-2.5748733E-1,7.814067E-1,2.6439708E-1,3.0888757E-2,-2.3057087E-1,1.1771799E-1],"categories":[],"categories_nodes":[],"categories_segments":[],"categories_sizes":[],"default_left":[0,0,0,0,0,0,1,0,0,0,0],"id":24,"left_children":[1,3,5,-1,-1,-1,7,-1,9,-1,-1],"loss_changes":[8.879888E-2,3.3035874E-3,2.6032764E-2,0E0,0E0,0E0,6.245477E-3,0E0,3.4832442E-3,0E0,0E0],"parents":[2147483647,0,0,1,1,2,2,6,6,8,8],"right_children":[2,4,6,-1,-1,-1,8,-1,10,-1,-1],"split_conditions":[2.483E3,4.8972818E-1,5E-1,-2.6740456E-1,1.8135995E-1,-2.5748733E-1,-2.0000165E0,2.6439708E-1,2.08602E5,-2.3057087E-1,1.1771799E-1],"split_indices":[8,9,9,0,0,0,0,0,8,0,0],"split_type":[0,0,0,0,0,0,0,0,0,0,0],"sum_hessian":[4.1132456E-1,3.605842E-1,5.0740357E-2,3.5967642E-1,9.0778765E-4,1.0491612E-2,4.0248744E-2,3.143522E-2,8.813524E-3,2.6098012E-3,6.203722E-3],"tree_param":{"num_deleted":"0","num_feature":"46","num_nodes":"11","size_leaf_vector":"1"}},{"base_weights":[-8.008686E-1,-2.6731136E-1,8.032588E-1,9.0252364E-1,-2.177101E-1,4.4059232E-1,2.6387045E-1,5.589852E-2,2.1491508E-1],"categories":[],"categories_nodes":[],"categories_segments":[],"categories_sizes":[],"default_left":[0,0,1,0,0,0,0,0,0],"id":25,"left_children":[1,-1,3,5,-1,7,-1,-1,-1],"loss_changes":[1.0203242E-1,0E0,5.9598815E-3,1.0742247E-3,0E0,3.933377E-4,0E0,0E0,0E0],"parents":[2147483647,0,0,2,2,3,3,5,5],"right_children":[2,-1,4,6,-1,8,-1,-1,-1],"split_conditions":[5E-1,-2.6731136E-1,0E0,5.0000226E-1,-2.177101E-1,-2.0000072E0,2.6387045E-1,5.589852E-2,2.1491508E-1],"split_indices":[9,0,0,3,0,0,0,0,0],"split_type":[0,0,0,0,0,0,0,0,0],"sum_hessian":[3.2015193E-1,2.8515086E-1,3.5001066E-2,3.315541E-2,1.845655E-3,5.497864E-3,2.7657546E-2,3.7792572E-3,1.7186067E-3],"tree_param":{"num_deleted":"0","num_feature":"46","num_nodes":"9","size_leaf_vector":"1"}},{"base_weights":[-8.077869E-1,8.072035E-1,-2.6718193E-1,2.0202087E-1,2.6224223E-1,-2.2622731E-1,2.4012049E-1],"categories":[],"categories_nodes":[],"categories_segments":[],"categories_sizes":[],"default_left":[1,0,0,0,0,0,0],"id":26,"left_children":[1,3,-1,5,-1,-1,-1],"loss_changes":[7.539193E-2,2.5909934E-3,0E0,4.861452E-3,0E0,0E0,0E0],"parents":[2147483647,0,0,1,1,3,3],"right_children":[2,4,-1,6,-1,-1,-1],"split_conditions":[-1.9965786E0,5.0000226E-1,-2.6718193E-1,2.1184E5,2.6224223E-1,-2.2622731E-1,2.4012049E-1],"split_indices":[0,3,0,8,0,0,0],"split_type":[0,0,0,0,0,0,0],"sum_hessian":[2.4374402E-1,2.5559697E-2,2.1818432E-1,5.9003853E-3,1.9659312E-2,2.3004783E-3,3.599907E-3],"tree_param":{"num_deleted":"0","num_feature":"46","num_nodes":"7","size_leaf_vector":"1"}},{"base_weights":[-8.09548E-1,9.4508344E-1,-9.8468614E-1,-9.421045E-2,2.611117E-1,-2.6701686E-1,6.1626025E-2,1.9216618E-1,-1.8134262E-1],"categories":[],"categories_nodes":[],"categories_segments":[],"categories_sizes":[],"default_left":[1,0,0,0,0,0,0,0,0],"id":27,"left_children":[1,3,5,-1,-1,-1,7,-1,-1],"loss_changes":[5.730749E-2,8.2430895E-4,2.3370683E-3,0E0,0E0,0E0,1.3412173E-3,0E0,0E0],"parents":[2147483647,0,0,1,1,2,2,6,6],"right_children":[2,4,6,-1,-1,-1,8,-1,-1],"split_conditions":[-2.0000165E0,-9.253249E-3,2.1184E5,-9.421045E-2,2.611117E-1,-2.6701686E-1,-1.9965786E0,1.9216618E-1,-1.8134262E-1],"split_indices":[0,1,8,0,0,0,0,0,0],"split_type":[0,0,0,0,0,0,0,0,0],"sum_hessian":[1.849505E-1,1.661508E-2,1.6833542E-1,2.6196573E-4,1.6353114E-2,1.6633448E-1,2.0009428E-3,1.0914953E-3,9.094476E-4],"tree_param":{"num_deleted":"0","num_feature":"46","num_nodes":"9","size_leaf_vector":"1"}},{"base_weights":[-8.106555E-1,7.1413285E-1,-2.668076E-1,9.2361486E-1,1.0832285E-1,-8.7601304E-2,2.5797808E-1,-2.1698627E-1,2.2698453E-1],"categories":[],"categories_nodes":[],"categories_segments":[],"categories_sizes":[],"default_left":[1,1,0,0,0,0,0,0,0],"id":28,"left_children":[1,3,-1,5,7,-1,-1,-1,-1],"loss_changes":[4.0972345E-2,1.9295653E-3,0E0,7.285988E-4,3.344567E-3,0E0,0E0,0E0,0E0],"parents":[2147483647,0,0,1,1,3,3,4,4],"right_children":[2,4,-1,6,8,-1,-1,-1,-1],"split_conditions":[-1.9965786E0,-2.0000165E0,-2.668076E-1,-9.253249E-3,2.1184E5,-8.7601304E-2,2.5797808E-1,-2.1698627E-1,2.2698453E-1],"split_indices":[0,0,0,1,8,0,0,0,0],"split_type":[0,0,0,0,0,0,0,0,0],"sum_hessian":[1.429711E-1,1.5417959E-2,1.2755314E-1,1.1264072E-2,4.1538873E-3,2.3842389E-4,1.1025648E-2,1.8144182E-3,2.3394688E-3],"tree_param":{"num_deleted":"0","num_feature":"46","num_nodes":"9","size_leaf_vector":"1"}},{"base_weights":[-7.888601E-1,7.550336E-1,-2.6654628E-1,9.176682E-1,1.7671601E-1,-8.158173E-2,2.567107E-1,7.086029E-1,-1.9134076E-1,2.1827337E-1,-5.3674765E-2],"categories":[],"categories_nodes":[],"categories_segments":[],"categories_sizes":[],"default_left":[1,1,0,0,0,0,0,0,0,0,0],"id":29,"left_children":[1,3,-1,5,7,-1,-1,9,-1,-1,-1],"loss_changes":[3.6027484E-2,1.160556E-3,0E0,6.57876E-4,1.8347234E-3,0E0,0E0,3.1615316E-4,0E0,0E0,0E0],"parents":[2147483647,0,0,1,1,3,3,4,4,7,7],"right_children":[2,4,-1,6,8,-1,-1,10,-1,-1,-1],"split_conditions":[-1.9965786E0,-2.0000165E0,-2.6654628E-1,-9.253249E-3,5.00001E-1,-8.158173E-2,2.567107E-1,5.086956E-4,-1.9134076E-1,2.1827337E-1,-5.3674765E-2],"split_indices":[0,0,0,1,3,0,0,1,0,0,0],"split_type":[0,0,0,0,0,0,0,0,0,0,0],"sum_hessian":[1.1143998E-1,1.3034548E-2,9.8405436E-2,9.950815E-3,3.0837327E-3,2.18435E-4,9.7323805E-3,2.005686E-3,1.0780466E-3,1.8652458E-3,1.4044043E-4],"tree_param":{"num_deleted":"0","num_feature":"46","num_nodes":"11","size_leaf_vector":"1"}},{"base_weights":[-7.878995E-1,6.7752004E-1,-2.661847E-1,-1.580574E-1,7.829868E-1,2.532871E-1,2.0735505E-1,2.085904E-1,-1.8004659E-1],"categories":[],"categories_nodes":[],"categories_segments":[],"categories_sizes":[],"default_left":[1,0,0,0,1,0,0,0,0],"id":30,"left_children":[1,3,-1,-1,5,-1,7,-1,-1],"loss_changes":[2.610096E-2,1.6199611E-3,0E0,0E0,8.3444733E-4,0E0,1.597384E-3,0E0,0E0],"parents":[2147483647,0,0,1,1,4,4,6,6],"right_children":[2,4,-1,-1,6,-1,8,-1,-1],"split_conditions":[-1.9965786E0,5E-1,-2.661847E-1,-1.580574E-1,-2.0000165E0,2.532871E-1,5.00001E-1,2.085904E-1,-1.8004659E-1],"split_indices":[0,2,0,0,0,0,3,0,0],"split_type":[0,0,0,0,0,0,0,0,0],"sum_hessian":[8.495117E-2,1.036792E-2,7.458325E-2,6.3566724E-4,9.732252E-3,7.3418496E-3,2.3904024E-3,1.5000111E-3,8.903913E-4],"tree_param":{"num_deleted":"0","num_feature":"46","num_nodes":"9","size_leaf_vector":"1"}},{"base_weights":[-7.913355E-1,-9.300615E-1,8.269029E-1,-2.657438E-1,3.72473E-1,-9.251981E-2,2.4587676E-1,2.1905515E-1,-1.6859698E-1],"categories":[],"categories_nodes":[],"categories_segments":[],"categories_sizes":[],"default_left":[0,0,0,0,0,0,0,0,0],"id":31,"left_children":[1,3,5,-1,7,-1,-1,-1,-1],"loss_changes":[1.4999814E-2,5.1125996E-3,7.169123E-4,0E0,1.5584062E-3,0E0,0E0,0E0,0E0],"parents":[2147483647,0,0,1,1,2,2,4,4],"right_children":[2,4,6,-1,8,-1,-1,-1,-1],"split_conditions":[2.1184E5,5E-1,1.9824319E-4,-2.657438E-1,-2.0000165E0,-9.251981E-2,2.4587676E-1,2.1905515E-1,-1.6859698E-1],"split_indices":[8,9,2,0,0,0,0,0,0],"split_type":[0,0,0,0,0,0,0,0,0],"sum_hessian":[6.511888E-2,6.0146585E-2,4.9722926E-3,5.7493396E-2,2.65319E-3,2.5584147E-4,4.7164513E-3,1.909452E-3,7.437378E-4],"tree_param":{"num_deleted":"0","num_feature":"46","num_nodes":"9","size_leaf_vector":"1"}},{"base_weights":[-7.802839E-1,-2.6514873E-1,6.556427E-1,2.4434148E-1,-0E0,3.68701E-1,-1.5725267E-1,-1.0649935E-1,1.8418944E-1],"categories":[],"categories_nodes":[],"categories_segments":[],"categories_sizes":[],"default_left":[0,0,1,0,0,0,0,0,0],"id":32,"left_children":[1,-1,3,-1,5,7,-1,-1,-1],"loss_changes":[1.5517218E-2,0E0,1.1110888E-3,0E0,5.714369E-4,5.1696575E-4,0E0,0E0,0E0],"parents":[2147483647,0,0,2,2,4,4,5,5],"right_children":[2,-1,4,-1,6,8,-1,-1,-1],"split_conditions":[5E-1,-2.6514873E-1,-2.0000165E0,2.4434148E-1,5.00001E-1,1.9824319E-4,-1.5725267E-1,-1.0649935E-1,1.8418944E-1],"split_indices":[9,0,0,0,3,2,0,0,0],"split_type":[0,0,0,0,0,0,0,0,0],"sum_hessian":[5.013963E-2,4.385815E-2,6.281481E-3,4.3894937E-3,1.8919872E-3,1.263604E-3,6.2838313E-4,3.1098208E-4,9.52622E-4],"tree_param":{"num_deleted":"0","num_feature":"46","num_nodes":"9","size_leaf_vector":"1"}},{"base_weights":[-7.813976E-1,-2.644582E-1,5.9503233E-1,2.3778696E-1,-2.7923292E-2,2.6762837E-1,-1.46237E-1,1.7276572E-1,-1.1500222E-1],"categories":[],"categories_nodes":[],"categories_segments":[],"categories_sizes":[],"default_left":[0,0,1,0,0,0,0,0,0],"id":33,"left_children":[1,-1,3,-1,5,7,-1,-1,-1],"loss_changes":[1.1545334E-2,0E0,1.0280492E-3,0E0,3.8108762E-4,5.141251E-4,0E0,0E0,0E0],"parents":[2147483647,0,0,2,2,4,4,5,5],"right_children":[2,-1,4,-1,6,8,-1,-1,-1],"split_conditions":[5E-1,-2.644582E-1,-2.0000165E0,2.3778696E-1,5.00001E-1,-1.9965786E0,-1.46237E-1,1.7276572E-1,-1.1500222E-1],"split_indices":[9,0,0,0,3,0,0,0,0],"split_type":[0,0,0,0,0,0,0,0,0],"sum_hessian":[3.937592E-2,3.4352053E-2,5.023867E-3,3.3448292E-3,1.6790378E-3,1.1420668E-3,5.369711E-4,7.9260475E-4,3.4946203E-4],"tree_param":{"num_deleted":"0","num_feature":"46","num_nodes":"9","size_leaf_vector":"1"}},{"base_weights":[-7.723928E-1,6.359514E-1,-2.6345584E-1,-7.356545E-2,7.1577704E-1,1.9553459E-1,2.299035E-1,-1.1647658E-1,1.6134375E-1],"categories":[],"categories_nodes":[],"categories_segments":[],"categories_sizes":[],"default_left":[1,0,0,0,0,0,0,0,0],"id":34,"left_children":[1,3,-1,-1,5,7,-1,-1,-1],"loss_changes":[9.27861E-3,3.9347552E-4,0E0,0E0,1.9389205E-4,4.6615387E-4,0E0,0E0,0E0],"parents":[2147483647,0,0,1,1,4,4,5,5],"right_children":[2,4,-1,-1,6,8,-1,-1,-1],"split_conditions":[-1.9965786E0,5E-1,-2.6345584E-1,-7.356545E-2,5.0000226E-1,2.08602E5,2.299035E-1,-1.1647658E-1,1.6134375E-1],"split_indices":[0,2,0,0,3,8,0,0,0],"split_type":[0,0,0,0,0,0,0,0,0],"sum_hessian":[2.9872166E-2,3.7851185E-3,2.6087048E-2,1.9376294E-4,3.5913556E-3,1.0234131E-3,2.5679425E-3,3.5654154E-4,6.668716E-4],"tree_param":{"num_deleted":"0","num_feature":"46","num_nodes":"9","size_leaf_vector":"1"}},{"base_weights":[-7.444268E-1,5.8901024E-1,-2.6219687E-1,-0E0,2.2552735E-1,3.4096834E-1,-1.2723055E-1,-5.9722625E-2,1.5019858E-1],"categories":[],"categories_nodes":[],"categories_segments":[],"categories_sizes":[],"default_left":[1,0,0,0,0,0,0,0,0],"id":35,"left_children":[1,3,-1,5,-1,7,-1,-1,-1],"loss_changes":[7.687847E-3,5.649283E-4,0E0,3.0739093E-4,0E0,1.9679376E-4,0E0,0E0,0E0],"parents":[2147483647,0,0,1,1,3,3,5,5],"right_children":[2,4,-1,6,-1,8,-1,-1,-1],"split_conditions":[-1.9965786E0,5.0000226E-1,-2.6219687E-1,5.00001E-1,2.2552735E-1,4.999869E-1,-1.2723055E-1,-5.9722625E-2,1.5019858E-1],"split_indices":[0,3,0,3,0,2,0,0,0],"split_type":[0,0,0,0,0,0,0,0,0],"sum_hessian":[2.3392553E-2,3.3983157E-3,1.9994237E-2,1.136209E-3,2.2621066E-3,7.2327297E-4,4.129361E-4,1.5558147E-4,5.676915E-4],"tree_param":{"num_deleted":"0","num_feature":"46","num_nodes":"9","size_leaf_vector":"1"}},{"base_weights":[-7.4019814E-1,-2.6064736E-1,5.3592336E-1,2.146109E-1,-0E0,7.2138086E-2,-5.646314E-2,1.3947664E-1,-1.1791085E-1],"categories":[],"categories_nodes":[],"categories_segments":[],"categories_sizes":[],"default_left":[0,0,1,0,0,0,0,0,0],"id":36,"left_children":[1,-1,3,-1,5,7,-1,-1,-1],"loss_changes":[5.756718E-3,0E0,4.5936042E-4,0E0,2.9872293E-5,3.7368078E-4,0E0,0E0,0E0],"parents":[2147483647,0,0,2,2,4,4,5,5],"right_children":[2,-1,4,-1,6,8,-1,-1,-1],"split_conditions":[5E-1,-2.6064736E-1,-2.0000165E0,2.146109E-1,-1.9965786E0,5.00001E-1,-5.646314E-2,1.3947664E-1,-1.1791085E-1],"split_indices":[9,0,0,0,0,3,0,0,0],"split_type":[0,0,0,0,0,0,0,0,0],"sum_hessian":[1.8212777E-2,1.5494635E-2,2.718141E-3,1.7186818E-3,9.994592E-4,8.5213094E-4,1.4732823E-4,4.8851897E-4,3.6361197E-4],"tree_param":{"num_deleted":"0","num_feature":"46","num_nodes":"9","size_leaf_vector":"1"}},{"base_weights":[-7.18315E-1,5.644323E-1,-2.5864983E-1,-3.7660707E-2,6.3046116E-1,1.3343646E-1,2.0567971E-1,-0E0,6.276936E-2],"categories":[],"categories_nodes":[],"categories_segments":[],"categories_sizes":[],"default_left":[1,0,0,0,0,0,0,0,0],"id":37,"left_children":[1,3,-1,-1,5,7,-1,-1,-1],"loss_changes":[4.8510935E-3,1.7122278E-4,0E0,0E0,9.783497E-5,1.1133045E-5,0E0,0E0,0E0],"parents":[2147483647,0,0,1,1,4,4,5,5],"right_children":[2,4,-1,-1,6,8,-1,-1,-1],"split_conditions":[-1.9965786E0,5E-1,-2.5864983E-1,-3.7660707E-2,5.0000226E-1,2.15078E5,2.0567971E-1,-0E0,6.276936E-2],"split_indices":[0,2,0,0,3,6,0,0,0],"split_type":[0,0,0,0,0,0,0,0,0],"sum_hessian":[1.4170827E-2,2.1939382E-3,1.1976889E-2,1.0422821E-4,2.08971E-3,6.7331665E-4,1.4163933E-3,5.097839E-4,1.6353276E-4],"tree_param":{"num_deleted":"0","num_feature":"46","num_nodes":"9","size_leaf_vector":"1"}},{"base_weights":[-6.942774E-1,-2.5608385E-1,4.4770312E-1,-5.051521E-3,1.9523893E-1,-1.09295465E-1,2.632442E-1,1.2762052E-1,-5.1146973E-2],"categories":[],"categories_nodes":[],"categories_segments":[],"categories_sizes":[],"default_left":[0,0,0,0,0,0,0,0,0],"id":38,"left_children":[1,-1,3,5,-1,-1,7,-1,-1],"loss_changes":[3.672585E-3,0E0,3.3496672E-4,1.8159529E-4,0E0,0E0,1.3510039E-4,0E0,0E0],"parents":[2147483647,0,0,2,2,3,3,6,6],"right_children":[2,-1,4,6,-1,-1,8,-1,-1],"split_conditions":[5E-1,-2.5608385E-1,5.0000226E-1,2.08602E5,1.9523893E-1,-1.09295465E-1,-1.9965786E0,1.2762052E-1,-5.1146973E-2],"split_indices":[9,0,3,8,0,0,0,0,0],"split_type":[0,0,0,0,0,0,0,0,0],"sum_hessian":[1.1268344E-2,9.238236E-3,2.030108E-3,8.7262E-4,1.1574879E-3,3.2317612E-4,5.494439E-4,4.1505822E-4,1.3438561E-4],"tree_param":{"num_deleted":"0","num_feature":"46","num_nodes":"9","size_leaf_vector":"1"}},{"base_weights":[-6.7242944E-1,-2.5300416E-1,4.253876E-1,1.8398742E-1,-0E0,2.6797372E-1,-1.013811E-1,1.1825221E-1,-3.6666382E-2],"categories":[],"categories_nodes":[],"categories_segments":[],"categories_sizes":[],"default_left":[0,0,1,0,0,0,0,0,0],"id":39,"left_children":[1,-1,3,-1,5,7,-1,-1,-1],"loss_changes":[2.9584807E-3,0E0,2.5096227E-4,0E0,1.569078E-4,9.364345E-5,0E0,0E0,0E0],"parents":[2147483647,0,0,2,2,4,4,5,5],"right_children":[2,-1,4,-1,6,8,-1,-1,-1],"split_conditions":[5E-1,-2.5300416E-1,-2.0000165E0,1.8398742E-1,5.00001E-1,-1.9965786E0,-1.013811E-1,1.1825221E-1,-3.6666382E-2],"split_indices":[9,0,0,0,3,0,0,0,0],"split_type":[0,0,0,0,0,0,0,0,0],"sum_hessian":[8.925316E-3,7.217408E-3,1.7079081E-3,9.5079007E-4,7.5711805E-4,4.6739695E-4,2.897211E-4,3.6524862E-4,1.0214833E-4],"tree_param":{"num_deleted":"0","num_feature":"46","num_nodes":"9","size_leaf_vector":"1"}},{"base_weights":[-6.466678E-1,3.9052618E-1,-2.4889725E-1,-4.1320585E-2,1.7527355E-1,2.80609E-1,-1.0559572E-1,-0E0,8.4754646E-2],"categories":[],"categories_nodes":[],"categories_segments":[],"categories_sizes":[],"default_left":[1,0,0,0,0,0,0,0,0],"id":40,"left_children":[1,3,-1,5,-1,7,-1,-1,-1],"loss_changes":[2.324642E-3,2.4047526E-4,0E0,1.5958156E-4,0E0,6.68336E-6,0E0,0E0,0E0],"parents":[2147483647,0,0,1,1,3,3,5,5],"right_children":[2,4,-1,6,-1,8,-1,-1,-1],"split_conditions":[-1.9965786E0,2.1184E5,-2.4889725E-1,-2.0000165E0,1.7527355E-1,5E0,-1.0559572E-1,-0E0,8.4754646E-2],"split_indices":[0,8,0,0,0,11,0,0,0],"split_type":[0,0,0,0,0,0,0,0,0],"sum_hessian":[6.9973045E-3,1.4427255E-3,5.5545787E-3,6.1756314E-4,8.251624E-4,3.1042538E-4,3.071378E-4,8.154832E-5,2.2887706E-4],"tree_param":{"num_deleted":"0","num_feature":"46","num_nodes":"9","size_leaf_vector":"1"}},{"base_weights":[-6.03044E-1,-2.4400418E-1,4.493693E-1,5.4415214E-1,-3.366599E-2,7.526178E-2,1.6860172E-1,6.72951E-2,-2.4021724E-2],"categories":[],"categories_nodes":[],"categories_segments":[],"categories_sizes":[],"default_left":[0,0,1,0,0,1,0,0,0],"id":41,"left_children":[1,-1,3,5,-1,7,-1,-1,-1],"loss_changes":[2.0852927E-3,0E0,1.2634325E-4,1.5533005E-5,0E0,3.5440404E-5,0E0,0E0,0E0],"parents":[2147483647,0,0,2,2,3,3,5,5],"right_children":[2,-1,4,6,-1,8,-1,-1,-1],"split_conditions":[5E-1,-2.4400418E-1,0E0,5E0,-3.366599E-2,5.00001E-1,1.6860172E-1,6.72951E-2,-2.4021724E-2],"split_indices":[9,0,0,11,0,3,0,0,0],"split_type":[0,0,0,0,0,0,0,0,0],"sum_hessian":[5.5106776E-3,4.3270695E-3,1.1836078E-3,1.0876394E-3,9.596837E-5,3.4357453E-4,7.4406486E-4,1.7582386E-4,1.6775067E-4],"tree_param":{"num_deleted":"0","num_feature":"46","num_nodes":"9","size_leaf_vector":"1"}},{"base_weights":[-5.8110493E-1,3.2001653E-1,-2.3847136E-1,-8.2595564E-2,1.574885E-1,5.7352286E-2,-9.791519E-2],"categories":[],"categories_nodes":[],"categories_segments":[],"categories_sizes":[],"default_left":[1,0,0,0,0,0,0],"id":42,"left_children":[1,3,-1,5,-1,-1,-1],"loss_changes":[1.511427E-3,2.0059857E-4,0E0,1.0973589E-4,0E0,0E0,0E0],"parents":[2147483647,0,0,1,1,3,3],"right_children":[2,4,-1,6,-1,-1,-1],"split_conditions":[-1.9965786E0,2.1184E5,-2.3847136E-1,-2.0000165E0,1.574885E-1,5.7352286E-2,-9.791519E-2],"split_indices":[0,8,0,0,0,0,0],"split_type":[0,0,0,0,0,0,0],"sum_hessian":[4.571569E-3,1.1366997E-3,3.4348692E-3,5.0599745E-4,6.307022E-4,2.2993809E-4,2.7605938E-4],"tree_param":{"num_deleted":"0","num_feature":"46","num_nodes":"7","size_leaf_vector":"1"}},{"base_weights":[-5.3303933E-1,-2.3143303E-1,3.065591E-1,1.4752208E-1,-4.830218E-2,1.4391024E-1,-7.843017E-2,7.687359E-2,-2.1855002E-2],"categories":[],"categories_nodes":[],"categories_segments":[],"categories_sizes":[],"default_left":[0,0,1,0,0,0,0,0,0],"id":43,"left_children":[1,-1,3,-1,5,7,-1,-1,-1],"loss_changes":[1.2640248E-3,0E0,1.5084665E-4,0E0,6.210297E-5,3.755879E-5,0E0,0E0,0E0],"parents":[2147483647,0,0,2,2,4,4,5,5],"right_children":[2,-1,4,-1,6,8,-1,-1,-1],"split_conditions":[5E-1,-2.3143303E-1,1.208E5,1.4752208E-1,5.00001E-1,-1.9965786E0,-7.843017E-2,7.687359E-2,-2.1855002E-2],"split_indices":[9,0,8,0,3,0,0,0,0],"split_type":[0,0,0,0,0,0,0,0,0],"sum_hessian":[3.7259755E-3,2.6937162E-3,1.0322592E-3,5.469246E-4,4.8533466E-4,2.768125E-4,2.0852215E-4,2.0370792E-4,7.3104595E-5],"tree_param":{"num_deleted":"0","num_feature":"46","num_nodes":"9","size_leaf_vector":"1"}},{"base_weights":[-5.0356317E-1,2.9589537E-1,-2.2330509E-1,1.3155615E-1,-1.5776205E-3,-7.478817E-2,8.304452E-3,3.6275633E-2,-7.32324E-2],"categories":[],"categories_nodes":[],"categories_segments":[],"categories_sizes":[],"default_left":[1,1,0,0,0,0,0,0,0],"id":44,"left_children":[1,3,-1,-1,5,7,-1,-1,-1],"loss_changes":[1.0024338E-3,8.971447E-5,0E0,0E0,4.3582745E-6,4.823878E-5,0E0,0E0,0E0],"parents":[2147483647,0,0,1,1,4,4,5,5],"right_children":[2,4,-1,-1,6,8,-1,-1,-1],"split_conditions":[-1.9965786E0,-2.0000165E0,-2.2330509E-1,1.3155615E-1,2.15078E5,5.00001E-1,8.304452E-3,3.6275633E-2,-7.32324E-2],"split_indices":[0,0,0,0,6,3,0,0,0],"split_type":[0,0,0,0,0,0,0,0,0],"sum_hessian":[2.983218E-3,8.527302E-4,2.130488E-3,4.3820805E-4,4.145221E-4,3.17619E-4,9.6903095E-5,1.2482484E-4,1.9279416E-4],"tree_param":{"num_deleted":"0","num_feature":"46","num_nodes":"9","size_leaf_vector":"1"}},{"base_weights":[-4.3680507E-1,-2.1475494E-1,3.84716E-1,4.4197667E-1,-2.288292E-3,-0E0,1.3698475E-1,3.9326027E-2,-2.7087195E-2],"categories":[],"categories_nodes":[],"categories_segments":[],"categories_sizes":[],"default_left":[0,0,1,0,0,0,0,0,0],"id":45,"left_children":[1,-1,3,5,-1,7,-1,-1,-1],"loss_changes":[9.789661E-4,0E0,4.173664E-5,1.947835E-5,0E0,1.5266856E-5,0E0,0E0,0E0],"parents":[2147483647,0,0,2,2,3,3,5,5],"right_children":[2,-1,4,6,-1,8,-1,-1,-1],"split_conditions":[5E-1,-2.1475494E-1,4.2368E5,3E0,-2.288292E-3,2E0,1.3698475E-1,3.9326027E-2,-2.7087195E-2],"split_indices":[9,0,6,11,0,11,0,0,0],"split_type":[0,0,0,0,0,0,0,0,0],"sum_hessian":[2.4393867E-3,1.7247718E-3,7.146149E-4,6.628861E-4,5.1728828E-5,1.9071397E-4,4.7217208E-4,1.07760105E-4,8.295387E-5],"tree_param":{"num_deleted":"0","num_feature":"46","num_nodes":"9","size_leaf_vector":"1"}},{"base_weights":[-4.2778423E-1,-2.0490454E-1,2.1369798E-1,-4.2761054E-2,1.1458093E-1,1.440094E-1,-7.2652146E-2,6.186544E-2,-2.2239687E-3],"categories":[],"categories_nodes":[],"categories_segments":[],"categories_sizes":[],"default_left":[0,0,0,0,0,0,0,0,0],"id":46,"left_children":[1,-1,3,5,-1,7,-1,-1,-1],"loss_changes":[6.2930345E-4,0E0,8.3068706E-5,5.292528E-5,0E0,1.6642833E-5,0E0,0E0,0E0],"parents":[2147483647,0,0,2,2,3,3,5,5],"right_children":[2,-1,4,6,-1,8,-1,-1,-1],"split_conditions":[5E-1,-2.0490454E-1,5.0000226E-1,5.00001E-1,1.1458093E-1,3.72444E5,-7.2652146E-2,6.186544E-2,-2.2239687E-3],"split_indices":[9,0,3,3,0,6,0,0,0],"split_type":[0,0,0,0,0,0,0,0,0],"sum_hessian":[2.1457789E-3,1.3944152E-3,7.5136364E-4,4.0387182E-4,3.4749182E-4,2.1278171E-4,1.9109012E-4,1.6115747E-4,5.1624236E-5],"tree_param":{"num_deleted":"0","num_feature":"46","num_nodes":"9","size_leaf_vector":"1"}},{"base_weights":[-4.254477E-1,2.542442E-1,-1.9444114E-1,-2.6354967E-2,1.1460711E-1],"categories":[],"categories_nodes":[],"categories_segments":[],"categories_sizes":[],"default_left":[1,0,0,0,0],"id":47,"left_children":[1,3,-1,-1,-1],"loss_changes":[5.093054E-4,8.177727E-5,0E0,0E0,0E0],"parents":[2147483647,0,0,1,1],"right_children":[2,4,-1,-1,-1],"split_conditions":[-2.0000072E0,4E0,-1.9444114E-1,-2.6354967E-2,1.1460711E-1],"split_indices":[0,11,0,0,0],"split_type":[0,0,0,0,0],"sum_hessian":[1.6832176E-3,4.979108E-4,1.1853068E-3,1.5030676E-4,3.4760404E-4],"tree_param":{"num_deleted":"0","num_feature":"46","num_nodes":"5","size_leaf_vector":"1"}},{"base_weights":[-3.5546407E-1,-1.6188608E-1,3.2014582E-1,1.07604824E-1,-2.157983E-3],"categories":[],"categories_nodes":[],"categories_segments":[],"categories_sizes":[],"default_left":[0,0,1,0,0],"id":48,"left_children":[1,-1,3,-1,-1],"loss_changes":[4.2158342E-4,0E0,3.5609846E-5,0E0,0E0],"parents":[2147483647,0,0,2,2],"right_children":[2,-1,4,-1,-1],"split_conditions":[2.1184E5,-1.6188608E-1,4.2368E5,1.07604824E-1,-2.157983E-3],"split_indices":[8,0,8,0,0],"split_type":[0,0,0,0,0],"sum_hessian":[1.6249137E-3,1.2549803E-3,3.6993332E-4,3.157723E-4,5.4160984E-5],"tree_param":{"num_deleted":"0","num_feature":"46","num_nodes":"5","size_leaf_vector":"1"}},{"base_weights":[-2.8301352E-1,-1.7292482E-1,2.1653114E-1,1.0100632E-1,-1.4915499E-4,-5.9311174E-2,3.9689053E-2],"categories":[],"categories_nodes":[],"categories_segments":[],"categories_sizes":[],"default_left":[0,0,1,0,0,0,0],"id":49,"left_children":[1,-1,3,-1,5,-1,-1],"loss_changes":[3.937576E-4,0E0,4.8395817E-5,0E0,3.84297E-5,0E0,0E0],"parents":[2147483647,0,0,2,2,4,4],"right_children":[2,-1,4,-1,6,-1,-1],"split_conditions":[5E-1,-1.7292482E-1,1.208E5,1.0100632E-1,2.08602E5,-5.9311174E-2,3.9689053E-2],"split_indices":[9,0,6,0,8,0,0],"split_type":[0,0,0,0,0,0,0],"sum_hessian":[1.4126957E-3,7.9546415E-4,6.172316E-4,2.882457E-4,3.2898592E-4,1.5453371E-4,1.7445219E-4],"tree_param":{"num_deleted":"0","num_feature":"46","num_nodes":"7","size_leaf_vector":"1"}},{"base_weights":[-2.6133975E-1,-1.4416414E-1,1.575513E-2,9.6737884E-2,-2.1141614E-1,4.951146E-2,-1.1472305E-1],"categories":[],"categories_nodes":[],"categories_segments":[],"categories_sizes":[],"default_left":[0,0,1,0,0,0,0],"id":50,"left_children":[1,-1,3,-1,5,-1,-1],"loss_changes":[1.4902191E-4,0E0,1.2318834E-4,0E0,1.1283955E-4,0E0,0E0],"parents":[2147483647,0,0,2,2,4,4],"right_children":[2,-1,4,-1,6,-1,-1],"split_conditions":[5E-1,-1.4416414E-1,5.00001E-1,9.6737884E-2,-2.0000165E0,4.951146E-2,-1.1472305E-1],"split_indices":[2,0,3,0,0,0,0],"split_type":[0,0,0,0,0,0,0],"sum_hessian":[1.2719838E-3,5.217385E-4,7.5024535E-4,2.7154904E-4,4.786963E-4,1.3053289E-4,3.4816342E-4],"tree_param":{"num_deleted":"0","num_feature":"46","num_nodes":"7","size_leaf_vector":"1"}},{"base_weights":[-1.9271809E-1,8.19407E-2,-1.5445513E-1],"categories":[],"categories_nodes":[],"categories_segments":[],"categories_sizes":[],"default_left":[1,0,0],"id":51,"left_children":[1,-1,-1],"loss_changes":[3.521917E-4,0E0,0E0],"parents":[2147483647,0,0],"right_children":[2,-1,-1],"split_conditions":[-1.9965786E0,8.19407E-2,-1.5445513E-1],"split_indices":[0,0,0],"split_type":[0,0,0],"sum_hessian":[1.0559707E-3,4.522681E-4,6.0370256E-4],"tree_param":{"num_deleted":"0","num_feature":"46","num_nodes":"3","size_leaf_vector":"1"}},{"base_weights":[-2.2149187E-1,-1.4336532E-1,1.5435515E-1,8.095176E-2,-1.3566784E-2,1.060845E-2,-1.0258315E-1,-5.387213E-2,3.7156395E-3],"categories":[],"categories_nodes":[],"categories_segments":[],"categories_sizes":[],"default_left":[0,0,1,0,0,0,0,0,0],"id":52,"left_children":[1,-1,3,-1,5,-1,7,-1,-1],"loss_changes":[2.095798E-4,0E0,3.3788794E-5,0E0,6.943827E-6,0E0,1.4803316E-5,0E0,0E0],"parents":[2147483647,0,0,2,2,4,4,6,6],"right_children":[2,-1,4,-1,6,-1,8,-1,-1],"split_conditions":[5E-1,-1.4336532E-1,-2.0000165E0,8.095176E-2,2E0,1.060845E-2,2.08602E5,-5.387213E-2,3.7156395E-3],"split_indices":[9,0,0,0,11,0,8,0,0],"split_type":[0,0,0,0,0,0,0,0,0],"sum_hessian":[1.0125696E-3,5.1594514E-4,4.966245E-4,2.1648264E-4,2.8014186E-4,5.328371E-5,2.2685813E-4,1.4093885E-4,8.591929E-5],"tree_param":{"num_deleted":"0","num_feature":"46","num_nodes":"9","size_leaf_vector":"1"}},{"base_weights":[-1.770427E-1,-1.09842874E-1,2.5082535E-1,8.195475E-2,-0E0],"categories":[],"categories_nodes":[],"categories_segments":[],"categories_sizes":[],"default_left":[0,0,0,0,0],"id":53,"left_children":[1,-1,3,-1,-1],"loss_changes":[1.7808439E-4,0E0,1.5190082E-5,0E0,0E0],"parents":[2147483647,0,0,2,2],"right_children":[2,-1,4,-1,-1],"split_conditions":[2.1184E5,-1.09842874E-1,1E0,8.195475E-2,-0E0],"split_indices":[8,0,12,0,0],"split_type":[0,0,0,0,0],"sum_hessian":[9.544551E-4,6.8229734E-4,2.7215778E-4,2.1969607E-4,5.2461703E-5],"tree_param":{"num_deleted":"0","num_feature":"46","num_nodes":"5","size_leaf_vector":"1"}},{"base_weights":[-1.9304127E-1,7.626518E-2,-1.2175836E-1],"categories":[],"categories_nodes":[],"categories_segments":[],"categories_sizes":[],"default_left":[1,0,0],"id":54,"left_children":[1,-1,-1],"loss_changes":[2.0728202E-4,0E0,0E0],"parents":[2147483647,0,0],"right_children":[2,-1,-1],"split_conditions":[-2.0000165E0,7.626518E-2,-1.2175836E-1],"split_indices":[0,0,0],"split_type":[0,0,0],"sum_hessian":[8.3377876E-4,2.3444311E-4,5.9933565E-4],"tree_param":{"num_deleted":"0","num_feature":"46","num_nodes":"3","size_leaf_vector":"1"}},{"base_weights":[-8.610442E-2,2.365865E-1,-1.1744122E-1,8.228652E-2,-0E0,2.8710004E-2,-2.794966E-2],"categories":[],"categories_nodes":[],"categories_segments":[],"categories_sizes":[],"default_left":[1,1,0,0,0,0,0],"id":55,"left_children":[1,3,-1,-1,5,-1,-1],"loss_changes":[1.7884612E-4,1.2017765E-5,0E0,0E0,1.0750087E-5,0E0,0E0],"parents":[2147483647,0,0,1,1,4,4],"right_children":[2,4,-1,-1,6,-1,-1],"split_conditions":[-1.9965786E0,5.00001E-1,-1.1744122E-1,8.228652E-2,-2.0000165E0,2.8710004E-2,-2.794966E-2],"split_indices":[0,3,0,0,0,0,0],"split_type":[0,0,0,0,0,0,0],"sum_hessian":[7.8098534E-4,4.1963832E-4,3.6134702E-4,2.2076852E-4,1.9886982E-4,1.14249706E-4,8.4620115E-5],"tree_param":{"num_deleted":"0","num_feature":"46","num_nodes":"7","size_leaf_vector":"1"}},{"base_weights":[-1.1984731E-1,1.5107194E-1,-1.09387696E-1,-0E0,6.578453E-2,-2.9384904E-2,2.0210486E-2],"categories":[],"categories_nodes":[],"categories_segments":[],"categories_sizes":[],"default_left":[1,0,0,0,0,0,0],"id":56,"left_children":[1,3,-1,5,-1,-1,-1],"loss_changes":[1.194915E-4,1.6873564E-5,0E0,8.817463E-6,0E0,0E0,0E0],"parents":[2147483647,0,0,1,1,3,3],"right_children":[2,4,-1,6,-1,-1,-1],"split_conditions":[-1.9965786E0,5E0,-1.09387696E-1,-2.0000072E0,6.578453E-2,-2.9384904E-2,2.0210486E-2],"split_indices":[0,11,0,0,0,0,0],"split_type":[0,0,0,0,0,0,0],"sum_hessian":[7.285149E-4,4.0488454E-4,3.2363035E-4,2.0893133E-4,1.9595321E-4,1.388389E-4,7.009243E-5],"tree_param":{"num_deleted":"0","num_feature":"46","num_nodes":"7","size_leaf_vector":"1"}},{"base_weights":[-9.215077E-2,1.5121594E-1,-1.0100614E-1,-0E0,7.108966E-2],"categories":[],"categories_nodes":[],"categories_segments":[],"categories_sizes":[],"default_left":[1,0,0,0,0],"id":57,"left_children":[1,3,-1,-1,-1],"loss_changes":[1.038882E-4,2.215734E-5,0E0,0E0,0E0],"parents":[2147483647,0,0,1,1],"right_children":[2,4,-1,-1,-1],"split_conditions":[-1.9965786E0,2.1184E5,-1.0100614E-1,-0E0,7.108966E-2],"split_indices":[0,8,0,0,0],"split_type":[0,0,0,0,0],"sum_hessian":[6.8682246E-4,3.98574E-4,2.882485E-4,2.1201691E-4,1.8655707E-4],"tree_param":{"num_deleted":"0","num_feature":"46","num_nodes":"5","size_leaf_vector":"1"}},{"base_weights":[-4.7750793E-2,-9.330237E-2,5.1892813E-2],"categories":[],"categories_nodes":[],"categories_segments":[],"categories_sizes":[],"default_left":[0,0,0],"id":58,"left_children":[1,-1,-1],"loss_changes":[1.024547E-4,0E0,0E0],"parents":[2147483647,0,0],"right_children":[2,-1,-1],"split_conditions":[5E-1,-9.330237E-2,5.1892813E-2],"split_indices":[9,0,0],"split_type":[0,0,0],"sum_hessian":[5.995321E-4,2.587279E-4,3.408042E-4],"tree_param":{"num_deleted":"0","num_feature":"46","num_nodes":"3","size_leaf_vector":"1"}},{"base_weights":[-7.1885236E-2,5.6273367E-2,-2.7368417E-1,-3.195975E-1,-0E0,-9.4128884E-2,-0E0,-1.2803644E-2,4.881842E-3],"categories":[],"categories_nodes":[],"categories_segments":[],"categories_sizes":[],"default_left":[1,0,0,0,0,0,0,0,0],"id":59,"left_children":[1,-1,3,5,-1,-1,7,-1,-1],"loss_changes":[8.087783E-5,0E0,1.4836893E-5,3.055029E-6,0E0,0E0,1.1421786E-6,0E0,0E0],"parents":[2147483647,0,0,2,2,3,3,6,6],"right_children":[2,-1,4,6,-1,-1,8,-1,-1],"split_conditions":[-2.0000165E0,5.6273367E-2,2.15078E5,5E0,-0E0,-9.4128884E-2,5.8051E4,-1.2803644E-2,4.881842E-3],"split_indices":[0,0,6,11,0,0,6,0,0],"split_type":[0,0,0,0,0,0,0,0,0],"sum_hessian":[6.1652204E-4,1.7582675E-4,4.406953E-4,3.6712014E-4,7.357516E-5,2.6176532E-4,1.0535481E-4,5.7017714E-5,4.83371E-5],"tree_param":{"num_deleted":"0","num_feature":"46","num_nodes":"9","size_leaf_vector":"1"}},{"base_weights":[-6.918545E-2,1.2175267E-1,-8.489883E-2,-2.9884123E-3,6.294689E-2,1.7512113E-2,-3.7916917E-2],"categories":[],"categories_nodes":[],"categories_segments":[],"categories_sizes":[],"default_left":[1,0,0,0,0,0,0],"id":60,"left_children":[1,3,-1,5,-1,-1,-1],"loss_changes":[6.762338E-5,1.9120507E-5,0E0,1.1737047E-5,0E0,0E0,0E0],"parents":[2147483647,0,0,1,1,3,3],"right_children":[2,4,-1,6,-1,-1,-1],"split_conditions":[-1.9965786E0,2.1184E5,-8.489883E-2,-2.0000165E0,6.294689E-2,1.7512113E-2,-3.7916917E-2],"split_indices":[0,8,0,0,0,0,0],"split_type":[0,0,0,0,0,0,0],"sum_hessian":[5.8929936E-4,3.5993525E-4,2.2936413E-4,1.9590752E-4,1.6402773E-4,9.1135305E-5,1.0477222E-4],"tree_param":{"num_deleted":"0","num_feature":"46","num_nodes":"7","size_leaf_vector":"1"}},{"base_weights":[-4.2174257E-2,1.366421E-1,-7.909993E-2,-0E0,6.1409734E-2,1.3959768E-2,-2.5314843E-2],"categories":[],"categories_nodes":[],"categories_segments":[],"categories_sizes":[],"default_left":[1,0,0,1,0,0,0],"id":61,"left_children":[1,3,-1,5,-1,-1,-1],"loss_changes":[6.3431544E-5,1.4895121E-5,0E0,5.7135094E-6,0E0,0E0,0E0],"parents":[2147483647,0,0,1,1,3,3],"right_children":[2,4,-1,6,-1,-1,-1],"split_conditions":[-1.9965786E0,5E0,-7.909993E-2,5.00001E-1,6.1409734E-2,1.3959768E-2,-2.5314843E-2],"split_indices":[0,11,0,3,0,0,0],"split_type":[0,0,0,0,0,0,0],"sum_hessian":[5.5499916E-4,3.4437154E-4,2.1062765E-4,1.8439502E-4,1.5997652E-4,5.9006852E-5,1.2538816E-4],"tree_param":{"num_deleted":"0","num_feature":"46","num_nodes":"7","size_leaf_vector":"1"}},{"base_weights":[-4.6159983E-2,-2.3268934E-1,4.6415143E-2,1.571955E-2,-9.676892E-2],"categories":[],"categories_nodes":[],"categories_segments":[],"categories_sizes":[],"default_left":[0,0,0,0,0],"id":62,"left_children":[1,3,-1,-1,-1],"loss_changes":[5.4434415E-5,4.6757013E-5,0E0,0E0,0E0],"parents":[2147483647,0,0,1,1],"right_children":[2,4,-1,-1,-1],"split_conditions":[2.1184E5,-2.0000165E0,4.6415143E-2,1.571955E-2,-9.676892E-2],"split_indices":[8,0,0,0,0],"split_type":[0,0,0,0,0],"sum_hessian":[5.226625E-4,3.5926336E-4,1.6339912E-4,8.758428E-5,2.7167908E-4],"tree_param":{"num_deleted":"0","num_feature":"46","num_nodes":"5","size_leaf_vector":"1"}},{"base_weights":[-8.267718E-2,4.2980667E-2,-7.3403664E-2],"categories":[],"categories_nodes":[],"categories_segments":[],"categories_sizes":[],"default_left":[1,0,0],"id":63,"left_children":[1,-1,-1],"loss_changes":[5.977083E-5,0E0,0E0],"parents":[2147483647,0,0],"right_children":[2,-1,-1],"split_conditions":[-2.0000165E0,4.2980667E-2,-7.3403664E-2],"split_indices":[0,0,0],"split_type":[0,0,0],"sum_hessian":[4.5567038E-4,1.4475636E-4,3.10914E-4],"tree_param":{"num_deleted":"0","num_feature":"46","num_nodes":"3","size_leaf_vector":"1"}},{"base_weights":[-5.1387712E-2,-1.8286741E-1,2.5855495E-2,-6.6427305E-2,-0E0,-1.7672054E-2,2.3317542E-2],"categories":[],"categories_nodes":[],"categories_segments":[],"categories_sizes":[],"default_left":[0,0,0,0,0,0,0],"id":64,"left_children":[1,3,-1,-1,5,-1,-1],"loss_changes":[2.5777385E-5,1.0850565E-5,0E0,0E0,5.4000284E-6,0E0,0E0],"parents":[2147483647,0,0,1,1,4,4],"right_children":[2,4,-1,-1,6,-1,-1],"split_conditions":[2.1184E5,5.0000226E-1,2.5855495E-2,-6.6427305E-2,5E-1,-1.7672054E-2,2.3317542E-2],"split_indices":[8,3,0,0,9,0,0],"split_type":[0,0,0,0,0,0,0],"sum_hessian":[4.3992302E-4,3.14781E-4,1.2514202E-4,1.7343843E-4,1.4134256E-4,6.552595E-5,7.581662E-5],"tree_param":{"num_deleted":"0","num_feature":"46","num_nodes":"7","size_leaf_vector":"1"}},{"base_weights":[-0E0,1.5468779E-1,-6.0281403E-2,-0E0,5.5314224E-2,1.18968105E-2,-1.55108385E-2],"categories":[],"categories_nodes":[],"categories_segments":[],"categories_sizes":[],"default_left":[1,0,0,0,0,0,0],"id":65,"left_children":[1,3,-1,5,-1,-1,-1],"loss_changes":[4.3211352E-5,6.417009E-6,0E0,2.3947252E-6,0E0,0E0,0E0],"parents":[2147483647,0,0,1,1,3,3],"right_children":[2,4,-1,6,-1,-1,-1],"split_conditions":[-1.9965786E0,2.1184E5,-6.0281403E-2,-2.0000165E0,5.5314224E-2,1.18968105E-2,-1.55108385E-2],"split_indices":[0,8,0,0,0,0,0],"split_type":[0,0,0,0,0,0,0],"sum_hessian":[4.4487737E-4,2.8783525E-4,1.570421E-4,1.4335706E-4,1.4447821E-4,8.164982E-5,6.170723E-5],"tree_param":{"num_deleted":"0","num_feature":"46","num_nodes":"7","size_leaf_vector":"1"}},{"base_weights":[-0E0,1.2717791E-1,-5.6226134E-2,-0E0,4.9900386E-2,1.4989212E-2,-2.0671004E-2],"categories":[],"categories_nodes":[],"categories_segments":[],"categories_sizes":[],"default_left":[1,0,0,0,0,0,0],"id":66,"left_children":[1,3,-1,5,-1,-1,-1],"loss_changes":[3.427124E-5,7.3427154E-6,0E0,4.2002257E-6,0E0,0E0,0E0],"parents":[2147483647,0,0,1,1,3,3],"right_children":[2,4,-1,6,-1,-1,-1],"split_conditions":[-1.9965786E0,5E0,-5.6226134E-2,2E0,4.9900386E-2,1.4989212E-2,-2.0671004E-2],"split_indices":[0,11,0,11,0,0,0],"split_type":[0,0,0,0,0,0,0],"sum_hessian":[4.48972E-4,3.0222794E-4,1.4674403E-4,1.53431E-4,1.4879696E-4,6.0795064E-5,9.263593E-5],"tree_param":{"num_deleted":"0","num_feature":"46","num_nodes":"7","size_leaf_vector":"1"}},{"base_weights":[-0E0,1.2100192E-1,-5.1580787E-2,-0E0,4.6513222E-2,1.0537655E-2,-1.4357524E-2],"categories":[],"categories_nodes":[],"categories_segments":[],"categories_sizes":[],"default_left":[1,0,0,1,0,0,0],"id":67,"left_children":[1,3,-1,5,-1,-1,-1],"loss_changes":[2.8933016E-5,5.7832285E-6,0E0,2.052009E-6,0E0,0E0,0E0],"parents":[2147483647,0,0,1,1,3,3],"right_children":[2,4,-1,6,-1,-1,-1],"split_conditions":[-1.9965786E0,5E0,-5.1580787E-2,5.00001E-1,4.6513222E-2,1.0537655E-2,-1.4357524E-2],"split_indices":[0,11,0,3,0,0,0],"split_type":[0,0,0,0,0,0,0],"sum_hessian":[4.2460664E-4,2.8918416E-4,1.354225E-4,1.5317126E-4,1.360129E-4,5.3165866E-5,1.00005396E-4],"tree_param":{"num_deleted":"0","num_feature":"46","num_nodes":"7","size_leaf_vector":"1"}},{"base_weights":[-0E0,1.0108045E-1,-5.137223E-2,4.089317E-2,-0E0,-1.880667E-2,1.1673207E-2],"categories":[],"categories_nodes":[],"categories_segments":[],"categories_sizes":[],"default_left":[1,1,0,0,0,0,0],"id":68,"left_children":[1,3,-1,-1,5,-1,-1],"loss_changes":[2.5682737E-5,5.1710012E-6,0E0,0E0,3.0849E-6,0E0,0E0],"parents":[2147483647,0,0,1,1,4,4],"right_children":[2,4,-1,-1,6,-1,-1],"split_conditions":[-1.9965786E0,5.00001E-1,-5.137223E-2,4.089317E-2,5.0000226E-1,-1.880667E-2,1.1673207E-2],"split_indices":[0,3,0,0,3,0,0],"split_type":[0,0,0,0,0,0,0],"sum_hessian":[4.1261312E-4,2.7768756E-4,1.3492558E-4,1.294834E-4,1.4820417E-4,6.755559E-5,8.064858E-5],"tree_param":{"num_deleted":"0","num_feature":"46","num_nodes":"7","size_leaf_vector":"1"}},{"base_weights":[-3.826936E-2,3.290847E-2,-5.481641E-2],"categories":[],"categories_nodes":[],"categories_segments":[],"categories_sizes":[],"default_left":[1,0,0],"id":69,"left_children":[1,-1,-1],"loss_changes":[3.2354343E-5,0E0,0E0],"parents":[2147483647,0,0],"right_children":[2,-1,-1],"split_conditions":[-2.0000165E0,3.290847E-2,-5.481641E-2],"split_indices":[0,0,0],"split_type":[0,0,0],"sum_hessian":[3.5883242E-4,1.2263449E-4,2.3619794E-4],"tree_param":{"num_deleted":"0","num_feature":"46","num_nodes":"3","size_leaf_vector":"1"}},{"base_weights":[-0E0,1.03167415E-1,-4.5323607E-2,-0E0,4.5516636E-2,-2.039328E-2,9.399267E-3],"categories":[],"categories_nodes":[],"categories_segments":[],"categories_sizes":[],"default_left":[1,0,0,0,0,0,0],"id":70,"left_children":[1,3,-1,5,-1,-1,-1],"loss_changes":[2.1271762E-5,7.582906E-6,0E0,3.1784043E-6,0E0,0E0,0E0],"parents":[2147483647,0,0,1,1,3,3],"right_children":[2,4,-1,6,-1,-1,-1],"split_conditions":[-1.9965786E0,2.1184E5,-4.5323607E-2,5.0000226E-1,4.5516636E-2,-2.039328E-2,9.399267E-3],"split_indices":[0,8,0,3,0,0,0],"split_type":[0,0,0,0,0,0,0],"sum_hessian":[3.9044817E-4,2.6952778E-4,1.20920384E-4,1.4817553E-4,1.2135226E-4,7.042675E-5,7.774877E-5],"tree_param":{"num_deleted":"0","num_feature":"46","num_nodes":"7","size_leaf_vector":"1"}},{"base_weights":[-0E0,-4.4800755E-2,4.1704345E-2],"categories":[],"categories_nodes":[],"categories_segments":[],"categories_sizes":[],"default_left":[0,0,0],"id":71,"left_children":[1,-1,-1],"loss_changes":[2.8809816E-5,0E0,0E0],"parents":[2147483647,0,0],"right_children":[2,-1,-1],"split_conditions":[5E-1,-4.4800755E-2,4.1704345E-2],"split_indices":[9,0,0],"split_type":[0,0,0],"sum_hessian":[3.5000002E-4,1.1974528E-4,2.3025472E-4],"tree_param":{"num_deleted":"0","num_feature":"46","num_nodes":"3","size_leaf_vector":"1"}},{"base_weights":[-0E0,4.3812074E-2,-4.1017383E-2],"categories":[],"categories_nodes":[],"categories_segments":[],"categories_sizes":[],"default_left":[1,0,0],"id":72,"left_children":[1,-1,-1],"loss_changes":[2.7768598E-5,0E0,0E0],"parents":[2147483647,0,0],"right_children":[2,-1,-1],"split_conditions":[-1.9965786E0,4.3812074E-2,-4.1017383E-2],"split_indices":[0,0,0],"split_type":[0,0,0],"sum_hessian":[3.3732652E-4,2.259214E-4,1.1140515E-4],"tree_param":{"num_deleted":"0","num_feature":"46","num_nodes":"3","size_leaf_vector":"1"}},{"base_weights":[-0E0,-3.9237846E-2,3.5421185E-2],"categories":[],"categories_nodes":[],"categories_segments":[],"categories_sizes":[],"default_left":[0,0,0],"id":73,"left_children":[1,-1,-1],"loss_changes":[2.0663458E-5,0E0,0E0],"parents":[2147483647,0,0],"right_children":[2,-1,-1],"split_conditions":[5E-1,-3.9237846E-2,3.5421185E-2],"split_indices":[9,0,0],"split_type":[0,0,0],"sum_hessian":[3.0942354E-4,1.07577616E-4,2.0184593E-4],"tree_param":{"num_deleted":"0","num_feature":"46","num_nodes":"3","size_leaf_vector":"1"}},{"base_weights":[-9.731595E-4,2.5719106E-2,-1.3413632E-1,-6.3820146E-2,6.1067096E-3],"categories":[],"categories_nodes":[],"categories_segments":[],"categories_sizes":[],"default_left":[1,0,0,0,0],"id":74,"left_children":[1,-1,3,-1,-1],"loss_changes":[1.572721E-5,0E0,2.0067953E-5,0E0,0E0],"parents":[2147483647,0,0,2,2],"right_children":[2,-1,4,-1,-1],"split_conditions":[-2.0000165E0,2.5719106E-2,2.1184E5,-6.3820146E-2,6.1067096E-3],"split_indices":[0,0,8,0,0],"split_type":[0,0,0,0,0],"sum_hessian":[3.517777E-4,1.0775921E-4,2.4401848E-4,1.6636169E-4,7.765679E-5],"tree_param":{"num_deleted":"0","num_feature":"46","num_nodes":"5","size_leaf_vector":"1"}},{"base_weights":[-5.8743926E-3,1.7076984E-2,-1.14251174E-1,-5.9707623E-2,7.5404258E-3],"categories":[],"categories_nodes":[],"categories_segments":[],"categories_sizes":[],"default_left":[1,0,0,0,0],"id":75,"left_children":[1,-1,3,-1,-1],"loss_changes":[9.933312E-6,0E0,1.8971212E-5,0E0,0E0],"parents":[2147483647,0,0,2,2],"right_children":[2,-1,4,-1,-1],"split_conditions":[-2.0000165E0,1.7076984E-2,2.1184E5,-5.9707623E-2,7.5404258E-3],"split_indices":[0,0,8,0,0],"split_type":[0,0,0,0,0],"sum_hessian":[3.2756518E-4,9.1631264E-5,2.3593391E-4,1.5555926E-4,8.037466E-5],"tree_param":{"num_deleted":"0","num_feature":"46","num_nodes":"5","size_leaf_vector":"1"}},{"base_weights":[-0E0,-3.4560274E-2,8.0347255E-2,2.7773058E-2,-0E0],"categories":[],"categories_nodes":[],"categories_segments":[],"categories_sizes":[],"default_left":[0,0,1,0,0],"id":76,"left_children":[1,-1,3,-1,-1],"loss_changes":[1.1793132E-5,0E0,1.1681782E-6,0E0,0E0],"parents":[2147483647,0,0,2,2],"right_children":[2,-1,4,-1,-1],"split_conditions":[5E-1,-3.4560274E-2,-2.0000165E0,2.7773058E-2,-0E0],"split_indices":[9,0,0,0,0],"split_type":[0,0,0,0,0],"sum_hessian":[3.110845E-4,9.7795855E-5,2.1328866E-4,8.42807E-5,1.2900795E-4],"tree_param":{"num_deleted":"0","num_feature":"46","num_nodes":"5","size_leaf_vector":"1"}},{"base_weights":[-0E0,8.98718E-2,-3.168393E-2,-0E0,3.488729E-2],"categories":[],"categories_nodes":[],"categories_segments":[],"categories_sizes":[],"default_left":[1,0,0,0,0],"id":77,"left_children":[1,3,-1,-1,-1],"loss_changes":[1.1465154E-5,3.2732814E-6,0E0,0E0,0E0],"parents":[2147483647,0,0,1,1],"right_children":[2,4,-1,-1,-1],"split_conditions":[-1.9965786E0,2.1184E5,-3.168393E-2,-0E0,3.488729E-2],"split_indices":[0,8,0,0,0],"split_type":[0,0,0,0,0],"sum_hessian":[3.129851E-4,2.2101152E-4,9.197356E-5,1.2254658E-4,9.846494E-5],"tree_param":{"num_deleted":"0","num_feature":"46","num_nodes":"5","size_leaf_vector":"1"}},{"base_weights":[-0E0,-1.3056871E-1,2.5883067E-2,-4.2517986E-2,-0E0],"categories":[],"categories_nodes":[],"categories_segments":[],"categories_sizes":[],"default_left":[0,0,0,0,0],"id":78,"left_children":[1,3,-1,-1,-1],"loss_changes":[1.4249895E-5,3.246846E-6,0E0,0E0,0E0],"parents":[2147483647,0,0,1,1],"right_children":[2,4,-1,-1,-1],"split_conditions":[2.08602E5,5E0,2.5883067E-2,-4.2517986E-2,-0E0],"split_indices":[8,11,0,0,0],"split_type":[0,0,0,0,0],"sum_hessian":[2.9623852E-4,1.885355E-4,1.0770301E-4,1.3281866E-4,5.571683E-5],"tree_param":{"num_deleted":"0","num_feature":"46","num_nodes":"5","size_leaf_vector":"1"}},{"base_weights":[-0E0,3.0694308E-2,-8.787788E-2,-5.1774986E-2,7.032349E-3],"categories":[],"categories_nodes":[],"categories_segments":[],"categories_sizes":[],"default_left":[1,0,0,0,0],"id":79,"left_children":[1,-1,3,-1,-1],"loss_changes":[1.0726778E-5,0E0,1.506386E-5,0E0,0E0],"parents":[2147483647,0,0,2,2],"right_children":[2,-1,4,-1,-1],"split_conditions":[-2.0000165E0,3.0694308E-2,2.1184E5,-5.1774986E-2,7.032349E-3],"split_indices":[0,0,8,0,0],"split_type":[0,0,0,0,0],"sum_hessian":[2.989828E-4,9.00027E-5,2.089801E-4,1.3588493E-4,7.309518E-5],"tree_param":{"num_deleted":"0","num_feature":"46","num_nodes":"5","size_leaf_vector":"1"}},{"base_weights":[-0E0,-1.7459666E-2,2.4627844E-2],"categories":[],"categories_nodes":[],"categories_segments":[],"categories_sizes":[],"default_left":[0,0,0],"id":80,"left_children":[1,-1,-1],"loss_changes":[6.5168906E-6,0E0,0E0],"parents":[2147483647,0,0],"right_children":[2,-1,-1],"split_conditions":[2.1184E5,-1.7459666E-2,2.4627844E-2],"split_indices":[8,0,0],"split_type":[0,0,0],"sum_hessian":[2.9085358E-4,1.8476819E-4,1.0608541E-4],"tree_param":{"num_deleted":"0","num_feature":"46","num_nodes":"3","size_leaf_vector":"1"}},{"base_weights":[-0E0,-2.8006269E-2,6.7561634E-2,3.0152004E-2,-0E0],"categories":[],"categories_nodes":[],"categories_segments":[],"categories_sizes":[],"default_left":[0,0,1,0,0],"id":81,"left_children":[1,-1,3,-1,-1],"loss_changes":[7.818526E-6,0E0,3.2174453E-6,0E0,0E0],"parents":[2147483647,0,0,2,2],"right_children":[2,-1,4,-1,-1],"split_conditions":[5E-1,-2.8006269E-2,-2.0000165E0,3.0152004E-2,-0E0],"split_indices":[9,0,0,0,0],"split_type":[0,0,0,0,0],"sum_hessian":[3.0333886E-4,8.473249E-5,2.1860636E-4,8.892983E-5,1.2967653E-4],"tree_param":{"num_deleted":"0","num_feature":"46","num_nodes":"5","size_leaf_vector":"1"}},{"base_weights":[-0E0,-1.015199E-1,2.2818016E-2,-0E0,-4.7548577E-2],"categories":[],"categories_nodes":[],"categories_segments":[],"categories_sizes":[],"default_left":[0,0,0,0,0],"id":82,"left_children":[1,3,-1,-1,-1],"loss_changes":[9.305331E-6,1.0169366E-5,0E0,0E0,0E0],"parents":[2147483647,0,0,1,1],"right_children":[2,4,-1,-1,-1],"split_conditions":[2.1184E5,-2.0000165E0,2.2818016E-2,-0E0,-4.7548577E-2],"split_indices":[8,0,0,0,0],"split_type":[0,0,0,0,0],"sum_hessian":[2.8554644E-4,1.8236475E-4,1.0318168E-4,5.638301E-5,1.2598174E-4],"tree_param":{"num_deleted":"0","num_feature":"46","num_nodes":"5","size_leaf_vector":"1"}},{"base_weights":[-0E0,6.35103E-2,-2.4277583E-2,-0E0,2.9546605E-2],"categories":[],"categories_nodes":[],"categories_segments":[],"categories_sizes":[],"default_left":[1,0,0,0,0],"id":83,"left_children":[1,3,-1,-1,-1],"loss_changes":[6.154508E-6,3.307563E-6,0E0,0E0,0E0],"parents":[2147483647,0,0,1,1],"right_children":[2,4,-1,-1,-1],"split_conditions":[-1.9965786E0,2.1184E5,-2.4277583E-2,-0E0,2.9546605E-2],"split_indices":[0,8,0,0,0],"split_type":[0,0,0,0,0],"sum_hessian":[2.9043038E-4,2.1281576E-4,7.761462E-5,1.2507927E-4,8.77365E-5],"tree_param":{"num_deleted":"0","num_feature":"46","num_nodes":"5","size_leaf_vector":"1"}},{"base_weights":[-0E0,-2.0092683E-2,4.2539474E-2,2.8142216E-2,-0E0,7.964014E-3,-2.1690093E-2],"categories":[],"categories_nodes":[],"categories_segments":[],"categories_sizes":[],"default_left":[0,0,1,0,0,0,0],"id":84,"left_children":[1,-1,3,-1,5,-1,-1],"loss_changes":[3.5959238E-6,0E0,4.0776795E-6,0E0,3.3522776E-6,0E0,0E0],"parents":[2147483647,0,0,2,2,4,4],"right_children":[2,-1,4,-1,6,-1,-1],"split_conditions":[5E-1,-2.0092683E-2,5.00001E-1,2.8142216E-2,-2.0000165E0,7.964014E-3,-2.1690093E-2],"split_indices":[2,0,3,0,0,0,0],"split_type":[0,0,0,0,0,0,0],"sum_hessian":[2.7655257E-4,6.988094E-5,2.0667163E-4,8.499478E-5,1.21676836E-4,4.887558E-5,7.280126E-5],"tree_param":{"num_deleted":"0","num_feature":"46","num_nodes":"7","size_leaf_vector":"1"}},{"base_weights":[-0E0,-6.6464394E-2,1.6594183E-2,-3.212564E-2,-0E0],"categories":[],"categories_nodes":[],"categories_segments":[],"categories_sizes":[],"default_left":[0,0,0,0,0],"id":85,"left_children":[1,3,-1,-1,-1],"loss_changes":[4.313971E-6,4.3306036E-6,0E0,0E0,0E0],"parents":[2147483647,0,0,1,1],"right_children":[2,4,-1,-1,-1],"split_conditions":[2.1184E5,5.0000226E-1,1.6594183E-2,-3.212564E-2,-0E0],"split_indices":[8,3,0,0,0],"split_type":[0,0,0,0,0],"sum_hessian":[2.7879808E-4,1.8142791E-4,9.7370175E-5,9.28577E-5,8.85702E-5],"tree_param":{"num_deleted":"0","num_feature":"46","num_nodes":"5","size_leaf_vector":"1"}},{"base_weights":[-0E0,-8.0087535E-2,1.7610734E-2,-3.156422E-2,-0E0],"categories":[],"categories_nodes":[],"categories_segments":[],"categories_sizes":[],"default_left":[0,0,0,0,0],"id":86,"left_children":[1,3,-1,-1,-1],"loss_changes":[5.506088E-6,3.3363647E-6,0E0,0E0,0E0],"parents":[2147483647,0,0,1,1],"right_children":[2,4,-1,-1,-1],"split_conditions":[2.08602E5,5E0,1.7610734E-2,-3.156422E-2,-0E0],"split_indices":[8,11,0,0,0],"split_type":[0,0,0,0,0],"sum_hessian":[2.5240218E-4,1.5941702E-4,9.298516E-5,1.087619E-4,5.065512E-5],"tree_param":{"num_deleted":"0","num_feature":"46","num_nodes":"5","size_leaf_vector":"1"}},{"base_weights":[-0E0,-4.6435997E-2,1.7283503E-2,-2.392118E-2,-0E0],"categories":[],"categories_nodes":[],"categories_segments":[],"categories_sizes":[],"default_left":[0,0,0,0,0],"id":87,"left_children":[1,3,-1,-1,-1],"loss_changes":[3.1231757E-6,2.6326907E-6,0E0,0E0,0E0],"parents":[2147483647,0,0,1,1],"right_children":[2,4,-1,-1,-1],"split_conditions":[2.1184E5,5E0,1.7283503E-2,-2.392118E-2,-0E0],"split_indices":[8,11,0,0,0],"split_type":[0,0,0,0,0],"sum_hessian":[2.472433E-4,1.5438691E-4,9.2856375E-5,9.3963135E-5,6.0423783E-5],"tree_param":{"num_deleted":"0","num_feature":"46","num_nodes":"5","size_leaf_vector":"1"}},{"base_weights":[-0E0,1.5852354E-2,-1.9110562E-2],"categories":[],"categories_nodes":[],"categories_segments":[],"categories_sizes":[],"default_left":[1,0,0],"id":88,"left_children":[1,-1,-1],"loss_changes":[4.4543E-6,0E0,0E0],"parents":[2147483647,0,0],"right_children":[2,-1,-1],"split_conditions":[-2.0000165E0,1.5852354E-2,-1.9110562E-2],"split_indices":[0,0,0],"split_type":[0,0,0],"sum_hessian":[2.5919115E-4,8.5564825E-5,1.7362632E-4],"tree_param":{"num_deleted":"0","num_feature":"46","num_nodes":"3","size_leaf_vector":"1"}},{"base_weights":[-0E0,2.2141596E-2,-2.097909E-2],"categories":[],"categories_nodes":[],"categories_segments":[],"categories_sizes":[],"default_left":[1,0,0],"id":89,"left_children":[1,-1,-1],"loss_changes":[6.643879E-6,0E0,0E0],"parents":[2147483647,0,0],"right_children":[2,-1,-1],"split_conditions":[-1.9965786E0,2.2141596E-2,-2.097909E-2],"split_indices":[0,0,0],"split_type":[0,0,0],"sum_hessian":[2.5728095E-4,1.8578372E-4,7.1497234E-5],"tree_param":{"num_deleted":"0","num_feature":"46","num_nodes":"3","size_leaf_vector":"1"}},{"base_weights":[-0E0,1.5410061E-2,-1.8641384E-2],"categories":[],"categories_nodes":[],"categories_segments":[],"categories_sizes":[],"default_left":[1,0,0],"id":90,"left_children":[1,-1,-1],"loss_changes":[4.0129935E-6,0E0,0E0],"parents":[2147483647,0,0],"right_children":[2,-1,-1],"split_conditions":[-1.9965786E0,1.5410061E-2,-1.8641384E-2],"split_indices":[0,0,0],"split_type":[0,0,0],"sum_hessian":[2.4372604E-4,1.7646617E-4,6.725987E-5],"tree_param":{"num_deleted":"0","num_feature":"46","num_nodes":"3","size_leaf_vector":"1"}},{"base_weights":[-0E0,1.5422759E-2,-6.208043E-2,-3.8040392E-2,-0E0],"categories":[],"categories_nodes":[],"categories_segments":[],"categories_sizes":[],"default_left":[1,0,0,0,0],"id":91,"left_children":[1,-1,3,-1,-1],"loss_changes":[3.6707042E-6,0E0,7.6709275E-6,0E0,0E0],"parents":[2147483647,0,0,2,2],"right_children":[2,-1,4,-1,-1],"split_conditions":[-2.0000165E0,1.5422759E-2,2.1184E5,-3.8040392E-2,-0E0],"split_indices":[0,0,8,0,0],"split_type":[0,0,0,0,0],"sum_hessian":[2.5722326E-4,8.604574E-5,1.7117751E-4,1.05035026E-4,6.614249E-5],"tree_param":{"num_deleted":"0","num_feature":"46","num_nodes":"5","size_leaf_vector":"1"}},{"base_weights":[-0E0,5.6002192E-2,-1.7734544E-2,-0E0,2.4210915E-2],"categories":[],"categories_nodes":[],"categories_segments":[],"categories_sizes":[],"default_left":[1,0,0,0,0],"id":92,"left_children":[1,3,-1,-1,-1],"loss_changes":[3.7450727E-6,2.0173165E-6,0E0,0E0,0E0],"parents":[2147483647,0,0,1,1],"right_children":[2,4,-1,-1,-1],"split_conditions":[-1.9965786E0,5E0,-1.7734544E-2,-0E0,2.4210915E-2],"split_indices":[0,11,0,0,0],"split_type":[0,0,0,0,0],"sum_hessian":[2.562521E-4,1.9061466E-4,6.563744E-5,1.05260966E-4,8.53537E-5],"tree_param":{"num_deleted":"0","num_feature":"46","num_nodes":"5","size_leaf_vector":"1"}},{"base_weights":[-0E0,1.6021764E-2,-1.50633585E-2],"categories":[],"categories_nodes":[],"categories_segments":[],"categories_sizes":[],"default_left":[1,0,0],"id":93,"left_children":[1,-1,-1],"loss_changes":[3.405377E-6,0E0,0E0],"parents":[2147483647,0,0],"right_children":[2,-1,-1],"split_conditions":[-2.0000165E0,1.6021764E-2,-1.50633585E-2],"split_indices":[0,0,0],"split_type":[0,0,0],"sum_hessian":[2.540628E-4,8.7536406E-5,1.6652637E-4],"tree_param":{"num_deleted":"0","num_feature":"46","num_nodes":"3","size_leaf_vector":"1"}},{"base_weights":[-0E0,-1.799719E-2,3.5642017E-2,-0E0,1.9157028E-2],"categories":[],"categories_nodes":[],"categories_segments":[],"categories_sizes":[],"default_left":[0,0,0,0,0],"id":94,"left_children":[1,-1,3,-1,-1],"loss_changes":[2.7237375E-6,0E0,1.5878828E-6,0E0,0E0],"parents":[2147483647,0,0,2,2],"right_children":[2,-1,4,-1,-1],"split_conditions":[5E-1,-1.799719E-2,5.0000226E-1,-0E0,1.9157028E-2],"split_indices":[9,0,3,0,0],"split_type":[0,0,0,0,0],"sum_hessian":[2.4307336E-4,6.610601E-5,1.7696735E-4,1.0877986E-4,6.8187495E-5],"tree_param":{"num_deleted":"0","num_feature":"46","num_nodes":"5","size_leaf_vector":"1"}},{"base_weights":[-0E0,-6.0224406E-2,1.2951368E-2,-0E0,-3.3150136E-2],"categories":[],"categories_nodes":[],"categories_segments":[],"categories_sizes":[],"default_left":[0,0,0,0,0],"id":95,"left_children":[1,3,-1,-1,-1],"loss_changes":[3.0038384E-6,5.3776766E-6,0E0,0E0,0E0],"parents":[2147483647,0,0,1,1],"right_children":[2,4,-1,-1,-1],"split_conditions":[2.08602E5,-2.0000165E0,1.2951368E-2,-0E0,-3.3150136E-2],"split_indices":[8,0,0,0,0],"split_type":[0,0,0,0,0],"sum_hessian":[2.3472037E-4,1.4548162E-4,8.923874E-5,5.05585E-5,9.4923125E-5],"tree_param":{"num_deleted":"0","num_feature":"46","num_nodes":"5","size_leaf_vector":"1"}},{"base_weights":[-0E0,-1.6453737E-2,4.702247E-2,2.118982E-2,-0E0],"categories":[],"categories_nodes":[],"categories_segments":[],"categories_sizes":[],"default_left":[0,0,1,0,0],"id":96,"left_children":[1,-1,3,-1,-1],"loss_changes":[2.9149942E-6,0E0,1.5913719E-6,0E0,0E0],"parents":[2147483647,0,0,2,2],"right_children":[2,-1,4,-1,-1],"split_conditions":[5E-1,-1.6453737E-2,-2.0000165E0,2.118982E-2,-0E0],"split_indices":[9,0,0,0,0],"split_type":[0,0,0,0,0],"sum_hessian":[2.4429994E-4,6.3365806E-5,1.8093415E-4,7.1882976E-5,1.09051165E-4],"tree_param":{"num_deleted":"0","num_feature":"46","num_nodes":"5","size_leaf_vector":"1"}},{"base_weights":[-0E0,2.4034945E-2,-1.3344037E-2],"categories":[],"categories_nodes":[],"categories_segments":[],"categories_sizes":[],"default_left":[1,0,0],"id":97,"left_children":[1,-1,-1],"loss_changes":[5.453984E-6,0E0,0E0],"parents":[2147483647,0,0],"right_children":[2,-1,-1],"split_conditions":[-1.9965786E0,2.4034945E-2,-1.3344037E-2],"split_indices":[0,0,0],"split_type":[0,0,0],"sum_hessian":[2.1949377E-4,1.6154772E-4,5.794605E-5],"tree_param":{"num_deleted":"0","num_feature":"46","num_nodes":"3","size_leaf_vector":"1"}},{"base_weights":[-0E0,1.2599648E-2,-4.7035843E-2,-3.319549E-2,-0E0],"categories":[],"categories_nodes":[],"categories_segments":[],"categories_sizes":[],"default_left":[1,0,0,0,0],"id":98,"left_children":[1,-1,3,-1,-1],"loss_changes":[2.2143045E-6,0E0,6.1123555E-6,0E0,0E0],"parents":[2147483647,0,0,2,2],"right_children":[2,-1,4,-1,-1],"split_conditions":[-2.0000165E0,1.2599648E-2,2.1184E5,-3.319549E-2,-0E0],"split_indices":[0,0,8,0,0],"split_type":[0,0,0,0,0],"sum_hessian":[2.403789E-4,8.1403436E-5,1.5897547E-4,9.501496E-5,6.3960506E-5],"tree_param":{"num_deleted":"0","num_feature":"46","num_nodes":"5","size_leaf_vector":"1"}},{"base_weights":[-0E0,-5.060399E-2,1.0273286E-2,-0E0,-3.169716E-2],"categories":[],"categories_nodes":[],"categories_segments":[],"categories_sizes":[],"default_left":[0,0,0,0,0],"id":99,"left_children":[1,3,-1,-1,-1],"loss_changes":[2.0284344E-6,5.273142E-6,0E0,0E0,0E0],"parents":[2147483647,0,0,1,1],"right_children":[2,4,-1,-1,-1],"split_conditions":[2.1184E5,-2.0000165E0,1.0273286E-2,-0E0,-3.169716E-2],"split_indices":[8,0,0,0,0],"split_type":[0,0,0,0,0],"sum_hessian":[2.2952586E-4,1.4518059E-4,8.434527E-5,5.318109E-5,9.199949E-5],"tree_param":{"num_deleted":"0","num_feature":"46","num_nodes":"5","size_leaf_vector":"1"}}]},"name":"gbtree"},"learner_model_param":{"base_score":"1.2891556E-1","boost_from_average":"1","num_class":"0","num_feature":"46","num_target":"1"},"objective":{"name":"binary:logistic","reg_loss_param":{"scale_pos_weight":"1"}}},"version":[2,1,1]}